{"graph_0": {"_type": "graph-file", "path": "media/graph/graph_0_summary_58a9dd17.graph.json", "sha256": "58a9dd17edbdcd58f653479caf246b5d9c1f9ebf96a06f86ca9ba2138e2b1493", "size": 1410}, "_timestamp": 1587412758.586165, "Total Loss": 283.47562342882156, "_step": 156400, "_runtime": 4333.328188896179, "gradients/mlp.mlp.5.weight": {"_type": "histogram", "values": [1.0, 1.0, 0.0, 0.0, 0.0, 1.0, 0.0, 0.0, 0.0, 1.0, 2.0, 0.0, 0.0, 1.0, 1.0, 0.0, 2.0, 1.0, 0.0, 1.0, 0.0, 0.0, 0.0, 0.0, 0.0, 0.0, 0.0, 1.0, 0.0, 1.0, 0.0, 0.0, 0.0, 0.0, 0.0, 0.0, 0.0, 0.0, 0.0, 0.0, 0.0, 0.0, 1.0, 0.0, 0.0, 0.0, 0.0, 0.0, 0.0, 0.0, 0.0, 0.0, 0.0, 0.0, 0.0, 0.0, 0.0, 0.0, 0.0, 0.0, 0.0, 0.0, 0.0, 1.0], "bins": [-0.00508013553917408, -0.004907671827822924, -0.00473520765081048, -0.004562743939459324, -0.00439027976244688, -0.004217816051095724, -0.004045352339744568, -0.0038728881627321243, -0.0037004242185503244, -0.0035279602743685246, -0.0033554963301867247, -0.0031830323860049248, -0.0030105686746537685, -0.0028381047304719687, -0.0026656407862901688, -0.002493176842108369, -0.002320712897926569, -0.002148248953744769, -0.001975785009562969, -0.0018033210653811693, -0.0016308571211993694, -0.0014583934098482132, -0.0012859294656664133, -0.0011134655214846134, -0.0009410018101334572, -0.0007685376331210136, -0.0005960739217698574, -0.00042360974475741386, -0.00025114603340625763, -7.868185639381409e-05, 9.378185495734215e-05, 0.0002662460319697857, 0.0004387097433209419, 0.0006111734546720982, 0.0007836376316845417, 0.0009561013430356979, 0.0011285655200481415, 0.0013010292313992977, 0.0014734934084117413, 0.0016459571197628975, 0.001818421296775341, 0.0019908850081264973, 0.0021633487194776535, 0.002335812896490097, 0.0025082766078412533, 0.002680740784853697, 0.002853204496204853, 0.0030256686732172966, 0.0031981319189071655, 0.003370596095919609, 0.0035430602729320526, 0.003715524449944496, 0.003887987695634365, 0.004060451872646809, 0.004232916049659252, 0.004405380226671696, 0.004577843472361565, 0.004750307649374008, 0.004922771826386452, 0.005095235072076321, 0.005267699249088764, 0.005440163426101208, 0.005612627603113651, 0.00578509084880352, 0.005957555025815964]}, "parameters/mlp.mlp.4.weight": {"_type": "histogram", "values": [6.0, 4.0, 4.0, 6.0, 6.0, 6.0, 8.0, 8.0, 10.0, 17.0, 9.0, 6.0, 6.0, 6.0, 10.0, 7.0, 2.0, 4.0, 1.0, 0.0, 0.0, 0.0, 0.0, 0.0, 0.0, 0.0, 0.0, 0.0, 0.0, 0.0, 0.0, 0.0, 0.0, 0.0, 0.0, 0.0, 0.0, 0.0, 0.0, 0.0, 0.0, 8.0, 24.0, 17.0, 11.0, 4.0, 2.0, 0.0, 11.0, 17.0, 13.0, 9.0, 0.0, 0.0, 0.0, 0.0, 0.0, 0.0, 0.0, 1.0, 1.0, 3.0, 5.0, 4.0], "bins": [-1.0932328701019287, -1.067723035812378, -1.0422132015228271, -1.0167032480239868, -0.991193413734436, -0.9656835794448853, -0.9401737451553345, -0.9146639108657837, -0.8891540169715881, -0.8636441230773926, -0.8381342887878418, -0.812624454498291, -0.7871146202087402, -0.7616047263145447, -0.7360948920249939, -0.7105849981307983, -0.6850751638412476, -0.6595653295516968, -0.6340554356575012, -0.6085456013679504, -0.5830357074737549, -0.5575258731842041, -0.5320160388946533, -0.5065061450004578, -0.480996310710907, -0.4554864764213562, -0.42997658252716064, -0.40446674823760986, -0.3789569139480591, -0.3534470200538635, -0.32793718576431274, -0.3024272918701172, -0.2769174575805664, -0.2514076232910156, -0.22589772939682007, -0.2003878951072693, -0.17487800121307373, -0.14936816692352295, -0.12385833263397217, -0.09834843873977661, -0.07283854484558105, -0.04732871055603027, -0.021818876266479492, 0.003690958023071289, 0.02920079231262207, 0.05471062660217285, 0.08022058010101318, 0.10573041439056396, 0.13124024868011475, 0.15675008296966553, 0.1822599172592163, 0.20776987075805664, 0.23327970504760742, 0.2587895393371582, 0.284299373626709, 0.30980920791625977, 0.33531904220581055, 0.3608289957046509, 0.38633882999420166, 0.41184866428375244, 0.4373584985733032, 0.462868332862854, 0.48837828636169434, 0.5138881206512451, 0.5393979549407959]}, "gradients/mlp.mlp.4.bias": {"_type": "histogram", "values": [1.0, 0.0, 0.0, 0.0, 0.0, 0.0, 0.0, 0.0, 0.0, 0.0, 0.0, 0.0, 0.0, 0.0, 1.0, 0.0, 0.0, 0.0, 0.0, 0.0, 0.0, 0.0, 1.0, 0.0, 0.0, 0.0, 0.0, 0.0, 0.0, 1.0, 0.0, 0.0, 0.0, 1.0, 1.0, 2.0, 1.0, 0.0, 0.0, 3.0, 0.0, 1.0, 0.0, 1.0, 0.0, 1.0, 0.0, 0.0, 0.0, 0.0, 0.0, 0.0, 0.0, 0.0, 0.0, 0.0, 0.0, 0.0, 0.0, 0.0, 0.0, 0.0, 0.0, 1.0], "bins": [-1.0943040251731873e-08, -1.0644697567840922e-08, -1.034635488394997e-08, -1.004801220005902e-08, -9.749669516168069e-09, -9.451326832277118e-09, -9.152984148386167e-09, -8.854641464495216e-09, -8.556298780604266e-09, -8.257956096713315e-09, -7.959613412822364e-09, -7.661270728931413e-09, -7.362928045040462e-09, -7.064585361149511e-09, -6.7662426772585604e-09, -6.4678999933676096e-09, -6.169557309476659e-09, -5.871214625585708e-09, -5.572871941694757e-09, -5.274529257803806e-09, -4.976186573912855e-09, -4.677843890021904e-09, -4.3795012061309535e-09, -4.081158522240003e-09, -3.782815838349052e-09, -3.484473154458101e-09, -3.18613047056715e-09, -2.887787786676199e-09, -2.5894451027852483e-09, -2.2911024188942974e-09, -1.9927597350033466e-09, -1.6944170511123957e-09, -1.3960743672214448e-09, -1.097731683330494e-09, -7.993889994395431e-10, -5.010463155485922e-10, -2.0270363165764138e-10, 9.563905223330949e-11, 3.9398173612426035e-10, 6.923244200152112e-10, 9.90667103906162e-10, 1.289009787797113e-09, 1.5873524716880638e-09, 1.8856951555790147e-09, 2.1840378394699655e-09, 2.4823805233609164e-09, 2.7807232072518673e-09, 3.079065891142818e-09, 3.377408575033769e-09, 3.67575125892472e-09, 3.974093942815671e-09, 4.272436626706622e-09, 4.5707793105975725e-09, 4.869121994488523e-09, 5.167464678379474e-09, 5.465807362270425e-09, 5.764150046161376e-09, 6.062492730052327e-09, 6.360835413943278e-09, 6.6591780978342285e-09, 6.957520781725179e-09, 7.25586346561613e-09, 7.554206149507081e-09, 7.852548833398032e-09, 8.150891517288983e-09]}, "gradients/mlp.mlp.5.bias": {"_type": "histogram", "values": [1.0, 0.0, 1.0, 0.0, 0.0, 0.0, 0.0, 0.0, 0.0, 0.0, 1.0, 0.0, 0.0, 0.0, 2.0, 0.0, 1.0, 2.0, 0.0, 1.0, 1.0, 1.0, 1.0, 0.0, 0.0, 0.0, 0.0, 0.0, 0.0, 0.0, 0.0, 1.0, 1.0, 0.0, 0.0, 0.0, 0.0, 0.0, 0.0, 1.0, 0.0, 0.0, 0.0, 0.0, 0.0, 0.0, 0.0, 0.0, 0.0, 0.0, 0.0, 0.0, 0.0, 0.0, 0.0, 0.0, 0.0, 0.0, 0.0, 0.0, 0.0, 0.0, 0.0, 1.0], "bins": [-0.012207171879708767, -0.011794324032962322, -0.011381475254893303, -0.010968627408146858, -0.010555779561400414, -0.010142930783331394, -0.00973008293658495, -0.00931723415851593, -0.008904386311769485, -0.00849153846502304, -0.008078690618276596, -0.007665841840207577, -0.007252993993461132, -0.0068401456810534, -0.006427297368645668, -0.006014449521899223, -0.005601601209491491, -0.005188752897083759, -0.004775905050337315, -0.004363056272268295, -0.003950208425521851, -0.003537360578775406, -0.0031245118007063866, -0.002711663953959942, -0.002298816107213497, -0.0018859673291444778, -0.0014731194823980331, -0.0010602716356515884, -0.0006474228575825691, -0.00023457501083612442, 0.00017827283591032028, 0.0005911216139793396, 0.0010039694607257843, 0.001416817307472229, 0.0018296660855412483, 0.002242513932287693, 0.0026553617790341377, 0.003068210557103157, 0.0034810593351721764, 0.003893907181918621, 0.004306755028665066, 0.0047196028754115105, 0.005132450722157955, 0.0055452985689044, 0.005958148278295994, 0.0063709961250424385, 0.006783843971788883, 0.007196691818535328, 0.007609539665281773, 0.008022387512028217, 0.008435237221419811, 0.008848085068166256, 0.0092609329149127, 0.009673780761659145, 0.01008662860840559, 0.010499476455152035, 0.010912326164543629, 0.011325174011290073, 0.011738021858036518, 0.012150869704782963, 0.012563717551529408, 0.012976565398275852, 0.013389415107667446, 0.01380226295441389, 0.014215110801160336]}, "gradients/linear.bias": {"_type": "histogram", "values": [0.0, 0.0, 0.0, 0.0, 0.0, 0.0, 0.0, 0.0, 0.0, 0.0, 0.0, 0.0, 0.0, 0.0, 0.0, 0.0, 0.0, 0.0, 0.0, 0.0, 0.0, 0.0, 0.0, 0.0, 0.0, 0.0, 0.0, 0.0, 0.0, 0.0, 0.0, 0.0, 1.0, 0.0, 0.0, 0.0, 0.0, 0.0, 0.0, 0.0, 0.0, 0.0, 0.0, 0.0, 0.0, 0.0, 0.0, 0.0, 0.0, 0.0, 0.0, 0.0, 0.0, 0.0, 0.0, 0.0, 0.0, 0.0, 0.0, 0.0, 0.0, 0.0, 0.0, 0.0], "bins": [-0.005217684432864189, -0.005217684432864189, -0.005217684432864189, -0.005217684432864189, -0.005217684432864189, -0.005217684432864189, -0.005217684432864189, -0.005217684432864189, -0.005217684432864189, -0.005217684432864189, -0.005217684432864189, -0.005217684432864189, -0.005217684432864189, -0.005217684432864189, -0.005217684432864189, -0.005217684432864189, -0.005217684432864189, -0.005217684432864189, -0.005217684432864189, -0.005217684432864189, -0.005217684432864189, -0.005217684432864189, -0.005217684432864189, -0.005217684432864189, -0.005217684432864189, -0.005217684432864189, -0.005217684432864189, -0.005217684432864189, -0.005217684432864189, -0.005217684432864189, -0.005217684432864189, -0.005217684432864189, -0.005217684432864189, -0.005217684432864189, -0.005217684432864189, -0.005217684432864189, -0.005217684432864189, -0.005217684432864189, -0.005217684432864189, -0.005217684432864189, -0.005217684432864189, -0.005217684432864189, -0.005217684432864189, -0.005217684432864189, -0.005217684432864189, -0.005217684432864189, -0.005217684432864189, -0.005217684432864189, -0.005217684432864189, -0.005217684432864189, -0.005217684432864189, -0.005217684432864189, -0.005217684432864189, -0.005217684432864189, -0.005217684432864189, -0.005217684432864189, -0.005217684432864189, -0.005217684432864189, -0.005217684432864189, -0.005217684432864189, -0.005217684432864189, -0.005217684432864189, -0.005217684432864189, -0.005217684432864189, -0.005217684432864189]}, "gradients/mlp.mlp.1.bias": {"_type": "histogram", "values": [1.0, 0.0, 0.0, 0.0, 0.0, 0.0, 0.0, 0.0, 0.0, 0.0, 0.0, 0.0, 0.0, 0.0, 0.0, 0.0, 1.0, 2.0, 0.0, 0.0, 0.0, 0.0, 0.0, 0.0, 0.0, 1.0, 0.0, 0.0, 0.0, 1.0, 1.0, 1.0, 1.0, 0.0, 0.0, 0.0, 1.0, 0.0, 0.0, 0.0, 0.0, 1.0, 1.0, 0.0, 1.0, 0.0, 0.0, 1.0, 1.0, 0.0, 0.0, 0.0, 0.0, 0.0, 0.0, 0.0, 0.0, 0.0, 0.0, 0.0, 0.0, 0.0, 0.0, 1.0], "bins": [-0.0156471636146307, -0.015194220468401909, -0.014741277322173119, -0.014288334175944328, -0.013835391029715538, -0.013382447883486748, -0.012929504737257957, -0.012476561591029167, -0.012023618444800377, -0.011570675298571587, -0.011117732152342796, -0.010664789006114006, -0.010211844928562641, -0.00975890178233385, -0.00930595863610506, -0.00885301548987627, -0.00840007234364748, -0.00794712919741869, -0.0074941860511898994, -0.007041242904961109, -0.006588299758732319, -0.006135356612503529, -0.005682413466274738, -0.005229470320045948, -0.004776526242494583, -0.004323583096265793, -0.0038706399500370026, -0.0034176968038082123, -0.002964753657579422, -0.0025118105113506317, -0.0020588673651218414, -0.0016059242188930511, -0.0011529810726642609, -0.0007000379264354706, -0.0002470947802066803, 0.00020584836602210999, 0.0006587915122509003, 0.0011117346584796906, 0.0015646778047084808, 0.002017620950937271, 0.0024705640971660614, 0.0029235072433948517, 0.003376450389623642, 0.0038293935358524323, 0.0042823366820812225, 0.004735279828310013, 0.005188222974538803, 0.005641166120767593, 0.006094111129641533, 0.006547054275870323, 0.0069999974220991135, 0.007452940568327904, 0.007905883714556694, 0.008358826860785484, 0.008811770007014275, 0.009264713153243065, 0.009717656299471855, 0.010170599445700645, 0.010623542591929436, 0.011076485738158226, 0.011529428884387016, 0.011982372030615807, 0.012435315176844597, 0.012888258323073387, 0.013341201469302177]}, "gradients/linear.fc.weight": {"_type": "histogram", "values": [1.0, 0.0, 1.0, 1.0, 0.0, 4.0, 5.0, 4.0, 7.0, 8.0, 8.0, 14.0, 3.0, 18.0, 18.0, 22.0, 25.0, 24.0, 14.0, 30.0, 38.0, 29.0, 32.0, 32.0, 32.0, 24.0, 24.0, 9262.0, 23.0, 13.0, 9.0, 24.0, 10.0, 18.0, 22.0, 14.0, 12.0, 30.0, 20.0, 13.0, 17.0, 10.0, 21.0, 12.0, 11.0, 10.0, 5.0, 7.0, 2.0, 4.0, 1.0, 0.0, 0.0, 0.0, 0.0, 1.0, 1.0, 0.0, 0.0, 0.0, 0.0, 0.0, 1.0, 1.0], "bins": [-0.0025739874690771103, -0.0024789089802652597, -0.002383830491453409, -0.0022887520026415586, -0.002193673513829708, -0.0020985950250178576, -0.002003516536206007, -0.0019084381638094783, -0.0018133596749976277, -0.0017182811861857772, -0.0016232026973739266, -0.001528124208562076, -0.0014330458361655474, -0.0013379673473536968, -0.0012428888585418463, -0.0011478103697299957, -0.0010527318809181452, -0.0009576533921062946, -0.0008625749032944441, -0.0007674964144825935, -0.000672417925670743, -0.0005773394368588924, -0.0004822609480470419, -0.00038718245923519135, -0.00029210420325398445, -0.0001970257144421339, -0.00010194722563028336, -6.868736818432808e-06, 8.820975199341774e-05, 0.0001832882408052683, 0.00027836672961711884, 0.0003734452184289694, 0.00046852370724081993, 0.0005636021960526705, 0.000658680684864521, 0.0007537591736763716, 0.0008488376624882221, 0.0009439161513000727, 0.0010389946401119232, 0.0011340731289237738, 0.0012291516177356243, 0.0013242298737168312, 0.0014193085953593254, 0.0015143868513405323, 0.0016094655729830265, 0.0017045438289642334, 0.0017996225506067276, 0.0018947008065879345, 0.0019897790625691414, 0.0020848577842116356, 0.0021799360401928425, 0.0022750147618353367, 0.0023700930178165436, 0.0024651717394590378, 0.0025602499954402447, 0.002655328717082739, 0.0027504069730639458, 0.00284548569470644, 0.002940563950687647, 0.003035642672330141, 0.003130720928311348, 0.003225799649953842, 0.003320877905935049, 0.0034159566275775433, 0.00351103488355875]}, "parameters/mlp.mlp.5.weight": {"_type": "histogram", "values": [2.0, 1.0, 0.0, 0.0, 0.0, 0.0, 0.0, 0.0, 1.0, 0.0, 0.0, 0.0, 0.0, 0.0, 0.0, 0.0, 0.0, 0.0, 0.0, 0.0, 0.0, 0.0, 1.0, 0.0, 0.0, 1.0, 0.0, 0.0, 0.0, 0.0, 0.0, 1.0, 0.0, 0.0, 0.0, 0.0, 0.0, 0.0, 0.0, 2.0, 0.0, 0.0, 0.0, 1.0, 0.0, 0.0, 1.0, 0.0, 0.0, 1.0, 0.0, 1.0, 1.0, 0.0, 0.0, 0.0, 0.0, 0.0, 0.0, 0.0, 0.0, 1.0, 0.0, 1.0], "bins": [1.024800419807434, 1.027152180671692, 1.0295039415359497, 1.0318557024002075, 1.0342074632644653, 1.0365592241287231, 1.038910984992981, 1.0412627458572388, 1.0436145067214966, 1.0459662675857544, 1.0483180284500122, 1.05066978931427, 1.0530215501785278, 1.0553733110427856, 1.0577250719070435, 1.0600768327713013, 1.062428593635559, 1.064780354499817, 1.0671321153640747, 1.0694838762283325, 1.0718356370925903, 1.0741873979568481, 1.076539158821106, 1.0788909196853638, 1.0812426805496216, 1.0835944414138794, 1.0859462022781372, 1.088297963142395, 1.0906497240066528, 1.0930014848709106, 1.095353126525879, 1.0977048873901367, 1.1000566482543945, 1.1024084091186523, 1.1047601699829102, 1.107111930847168, 1.1094636917114258, 1.1118154525756836, 1.1141672134399414, 1.1165189743041992, 1.118870735168457, 1.1212224960327148, 1.1235742568969727, 1.1259260177612305, 1.1282777786254883, 1.130629539489746, 1.132981300354004, 1.1353330612182617, 1.1376848220825195, 1.1400365829467773, 1.1423883438110352, 1.144740104675293, 1.1470918655395508, 1.1494436264038086, 1.1517953872680664, 1.1541471481323242, 1.156498908996582, 1.1588506698608398, 1.1612024307250977, 1.1635541915893555, 1.1659059524536133, 1.168257713317871, 1.170609474182129, 1.1729612350463867, 1.1753129959106445]}, "parameters/mlp.mlp.5.bias": {"_type": "histogram", "values": [1.0, 0.0, 0.0, 1.0, 0.0, 2.0, 1.0, 0.0, 1.0, 0.0, 0.0, 0.0, 1.0, 0.0, 0.0, 0.0, 0.0, 0.0, 0.0, 0.0, 0.0, 0.0, 0.0, 0.0, 0.0, 0.0, 0.0, 0.0, 0.0, 0.0, 0.0, 0.0, 0.0, 0.0, 0.0, 0.0, 0.0, 0.0, 0.0, 0.0, 0.0, 0.0, 0.0, 0.0, 0.0, 0.0, 0.0, 0.0, 0.0, 0.0, 0.0, 0.0, 1.0, 1.0, 0.0, 0.0, 0.0, 0.0, 0.0, 1.0, 1.0, 1.0, 3.0, 1.0], "bins": [-0.43507441878318787, -0.4320165514945984, -0.4289587140083313, -0.4259008467197418, -0.42284297943115234, -0.41978514194488525, -0.4167272746562958, -0.4136694073677063, -0.4106115698814392, -0.40755370259284973, -0.40449583530426025, -0.40143799781799316, -0.3983801305294037, -0.3953222632408142, -0.3922644257545471, -0.38920655846595764, -0.38614869117736816, -0.3830908536911011, -0.3800329864025116, -0.3769751191139221, -0.37391725182533264, -0.37085941433906555, -0.3678015470504761, -0.3647436797618866, -0.3616858422756195, -0.35862797498703003, -0.35557010769844055, -0.35251227021217346, -0.349454402923584, -0.3463965356349945, -0.34333866834640503, -0.34028083086013794, -0.33722296357154846, -0.334165096282959, -0.3311072587966919, -0.3280493915081024, -0.32499152421951294, -0.32193368673324585, -0.31887581944465637, -0.3158179521560669, -0.3127601146697998, -0.3097022473812103, -0.30664438009262085, -0.30358654260635376, -0.3005286753177643, -0.2974708080291748, -0.2944129705429077, -0.29135510325431824, -0.28829723596572876, -0.28523939847946167, -0.2821815311908722, -0.2791236639022827, -0.2760658264160156, -0.27300795912742615, -0.26995009183883667, -0.2668922543525696, -0.2638343870639801, -0.2607765197753906, -0.25771868228912354, -0.25466081500053406, -0.2516029477119446, -0.2485450953245163, -0.245487242937088, -0.24242937564849854, -0.23937152326107025]}, "gradients/mlp.mlp.8.bias": {"_type": "histogram", "values": [0.0, 0.0, 0.0, 0.0, 0.0, 0.0, 0.0, 0.0, 0.0, 0.0, 0.0, 0.0, 0.0, 0.0, 0.0, 0.0, 0.0, 0.0, 0.0, 0.0, 0.0, 0.0, 0.0, 0.0, 0.0, 0.0, 0.0, 0.0, 0.0, 0.0, 0.0, 0.0, 1.0, 0.0, 0.0, 0.0, 0.0, 0.0, 0.0, 0.0, 0.0, 0.0, 0.0, 0.0, 0.0, 0.0, 0.0, 0.0, 0.0, 0.0, 0.0, 0.0, 0.0, 0.0, 0.0, 0.0, 0.0, 0.0, 0.0, 0.0, 0.0, 0.0, 0.0, 0.0], "bins": [-0.005217684432864189, -0.005217684432864189, -0.005217684432864189, -0.005217684432864189, -0.005217684432864189, -0.005217684432864189, -0.005217684432864189, -0.005217684432864189, -0.005217684432864189, -0.005217684432864189, -0.005217684432864189, -0.005217684432864189, -0.005217684432864189, -0.005217684432864189, -0.005217684432864189, -0.005217684432864189, -0.005217684432864189, -0.005217684432864189, -0.005217684432864189, -0.005217684432864189, -0.005217684432864189, -0.005217684432864189, -0.005217684432864189, -0.005217684432864189, -0.005217684432864189, -0.005217684432864189, -0.005217684432864189, -0.005217684432864189, -0.005217684432864189, -0.005217684432864189, -0.005217684432864189, -0.005217684432864189, -0.005217684432864189, -0.005217684432864189, -0.005217684432864189, -0.005217684432864189, -0.005217684432864189, -0.005217684432864189, -0.005217684432864189, -0.005217684432864189, -0.005217684432864189, -0.005217684432864189, -0.005217684432864189, -0.005217684432864189, -0.005217684432864189, -0.005217684432864189, -0.005217684432864189, -0.005217684432864189, -0.005217684432864189, -0.005217684432864189, -0.005217684432864189, -0.005217684432864189, -0.005217684432864189, -0.005217684432864189, -0.005217684432864189, -0.005217684432864189, -0.005217684432864189, -0.005217684432864189, -0.005217684432864189, -0.005217684432864189, -0.005217684432864189, -0.005217684432864189, -0.005217684432864189, -0.005217684432864189, -0.005217684432864189]}, "gradients/mlp.mlp.0.bias": {"_type": "histogram", "values": [1.0, 0.0, 0.0, 0.0, 0.0, 0.0, 0.0, 0.0, 0.0, 0.0, 0.0, 0.0, 0.0, 0.0, 0.0, 0.0, 0.0, 0.0, 0.0, 0.0, 0.0, 0.0, 0.0, 0.0, 0.0, 0.0, 0.0, 1.0, 0.0, 0.0, 0.0, 0.0, 0.0, 0.0, 0.0, 1.0, 0.0, 0.0, 0.0, 1.0, 0.0, 1.0, 0.0, 1.0, 0.0, 0.0, 2.0, 0.0, 2.0, 0.0, 0.0, 1.0, 1.0, 0.0, 1.0, 1.0, 0.0, 1.0, 0.0, 0.0, 0.0, 0.0, 0.0, 1.0], "bins": [-4.527464625425637e-09, -4.431967681739479e-09, -4.336470738053322e-09, -4.240973794367164e-09, -4.145476850681007e-09, -4.0499799069948494e-09, -3.954482963308692e-09, -3.8589860196225345e-09, -3.763489075936377e-09, -3.6679921322502196e-09, -3.572495188564062e-09, -3.4769982448779047e-09, -3.381501301191747e-09, -3.2860043575055897e-09, -3.1905074138194323e-09, -3.095010470133275e-09, -2.9995135264471173e-09, -2.90401658276096e-09, -2.8085196390748024e-09, -2.713022695388645e-09, -2.6175257517024875e-09, -2.52202880801633e-09, -2.4265318643301725e-09, -2.331034920644015e-09, -2.2355379769578576e-09, -2.1400410332717e-09, -2.0445440895855427e-09, -1.9490471458993852e-09, -1.8535502022132277e-09, -1.7580532585270703e-09, -1.6625563148409128e-09, -1.5670593711547554e-09, -1.4715624274685979e-09, -1.3760654837824404e-09, -1.280568540096283e-09, -1.1850715964101255e-09, -1.089574652723968e-09, -9.940777090378106e-10, -8.985807653516531e-10, -8.030838216654956e-10, -7.075868779793382e-10, -6.120899342931807e-10, -5.165929906070232e-10, -4.210960469208658e-10, -3.255991032347083e-10, -2.3010215954855084e-10, -1.3460521586239338e-10, -3.9108272176235914e-11, 5.638867150992155e-11, 1.5188561519607902e-10, 2.473825588822365e-10, 3.4287950256839395e-10, 4.383764462545514e-10, 5.338733899407089e-10, 6.293703336268663e-10, 7.248672773130238e-10, 8.203642209991813e-10, 9.158611646853387e-10, 1.0113581083714962e-09, 1.1068550520576537e-09, 1.2023519957438111e-09, 1.2978489394299686e-09, 1.393345883116126e-09, 1.4888428268022835e-09, 1.584339770488441e-09]}, "parameters/embedding.embedding.weight": {"_type": "histogram", "values": [1.0, 1.0, 0.0, 3.0, 3.0, 8.0, 6.0, 8.0, 21.0, 37.0, 40.0, 76.0, 102.0, 234.0, 306.0, 453.0, 658.0, 877.0, 1150.0, 1459.0, 1880.0, 2149.0, 2608.0, 3212.0, 3936.0, 4926.0, 6844.0, 9592.0, 13520.0, 24350.0, 18305.0, 13761.0, 10231.0, 7605.0, 5916.0, 4812.0, 4102.0, 3297.0, 2743.0, 2352.0, 1899.0, 1455.0, 1172.0, 865.0, 682.0, 566.0, 395.0, 330.0, 232.0, 183.0, 132.0, 97.0, 76.0, 56.0, 44.0, 41.0, 21.0, 9.0, 10.0, 7.0, 6.0, 3.0, 4.0, 3.0], "bins": [-1.4345673322677612, -1.3866209983825684, -1.338674545288086, -1.290728211402893, -1.2427818775177002, -1.1948354244232178, -1.146889090538025, -1.098942756652832, -1.0509963035583496, -1.0030499696731567, -0.9551036357879639, -0.9071572422981262, -0.8592108488082886, -0.8112645149230957, -0.7633181214332581, -0.7153717875480652, -0.6674253940582275, -0.6194790005683899, -0.571532666683197, -0.5235862731933594, -0.4756399393081665, -0.4276934862136841, -0.3797471523284912, -0.33180081844329834, -0.2838543653488159, -0.23590803146362305, -0.18796169757843018, -0.1400153636932373, -0.09206891059875488, -0.04412257671356201, 0.0038237571716308594, 0.05177021026611328, 0.09971654415130615, 0.14766287803649902, 0.19560933113098145, 0.24355566501617432, 0.2915019989013672, 0.3394484519958496, 0.3873947858810425, 0.43534111976623535, 0.4832874536514282, 0.5312339067459106, 0.5791803598403931, 0.6271265745162964, 0.6750730276107788, 0.7230194807052612, 0.7709656953811646, 0.818912148475647, 0.8668586015701294, 0.9148048162460327, 0.9627512693405151, 1.0106974840164185, 1.0586439371109009, 1.1065903902053833, 1.1545366048812866, 1.202483057975769, 1.2504295110702515, 1.2983757257461548, 1.3463221788406372, 1.3942686319351196, 1.442214846611023, 1.4901612997055054, 1.5381077527999878, 1.5860539674758911, 1.6340004205703735]}, "parameters/mlp.mlp.0.weight": {"_type": "histogram", "values": [6.0, 1.0, 0.0, 1.0, 5.0, 7.0, 4.0, 2.0, 3.0, 2.0, 1.0, 1.0, 1.0, 5.0, 5.0, 5.0, 7.0, 10.0, 6.0, 9.0, 12.0, 5.0, 11.0, 19.0, 33.0, 39.0, 65.0, 49.0, 46.0, 35.0, 20.0, 13.0, 6.0, 0.0, 1.0, 5.0, 4.0, 1.0, 2.0, 6.0, 3.0, 4.0, 1.0, 2.0, 0.0, 4.0, 0.0, 9.0, 2.0, 9.0, 2.0, 6.0, 3.0, 3.0, 0.0, 1.0, 4.0, 2.0, 0.0, 0.0, 0.0, 0.0, 2.0, 2.0], "bins": [-1.0136610269546509, -0.9761815071105957, -0.9387019872665405, -0.9012224674224854, -0.8637429475784302, -0.826263427734375, -0.788783848285675, -0.7513043284416199, -0.7138248085975647, -0.6763452887535095, -0.6388657689094543, -0.6013861894607544, -0.5639066696166992, -0.526427149772644, -0.48894762992858887, -0.4514681100845337, -0.4139885902404785, -0.37650907039642334, -0.33902955055236816, -0.301550030708313, -0.2640705108642578, -0.22659093141555786, -0.18911141157150269, -0.1516318917274475, -0.11415237188339233, -0.07667285203933716, -0.03919333219528198, -0.0017137527465820312, 0.035765767097473145, 0.07324528694152832, 0.1107248067855835, 0.14820432662963867, 0.18568384647369385, 0.22316336631774902, 0.2606428861618042, 0.2981224060058594, 0.33560192584991455, 0.3730814456939697, 0.4105609655380249, 0.4480404853820801, 0.48552000522613525, 0.52299964427948, 0.5604791641235352, 0.5979586839675903, 0.6354382038116455, 0.6729177236557007, 0.7103972434997559, 0.747876763343811, 0.7853562831878662, 0.8228358030319214, 0.8603153228759766, 0.8977948427200317, 0.9352743625640869, 0.9727538824081421, 1.0102335214614868, 1.0477129220962524, 1.0851925611495972, 1.1226719617843628, 1.1601516008377075, 1.1976310014724731, 1.2351106405258179, 1.2725900411605835, 1.3100696802139282, 1.3475490808486938, 1.3850287199020386]}, "parameters/linear.bias": {"_type": "histogram", "values": [0.0, 0.0, 0.0, 0.0, 0.0, 0.0, 0.0, 0.0, 0.0, 0.0, 0.0, 0.0, 0.0, 0.0, 0.0, 0.0, 0.0, 0.0, 0.0, 0.0, 0.0, 0.0, 0.0, 0.0, 0.0, 0.0, 0.0, 0.0, 0.0, 0.0, 0.0, 0.0, 1.0, 0.0, 0.0, 0.0, 0.0, 0.0, 0.0, 0.0, 0.0, 0.0, 0.0, 0.0, 0.0, 0.0, 0.0, 0.0, 0.0, 0.0, 0.0, 0.0, 0.0, 0.0, 0.0, 0.0, 0.0, 0.0, 0.0, 0.0, 0.0, 0.0, 0.0, 0.0], "bins": [0.12061139941215515, 0.12061139941215515, 0.12061139941215515, 0.12061139941215515, 0.12061139941215515, 0.12061139941215515, 0.12061139941215515, 0.12061139941215515, 0.12061139941215515, 0.12061139941215515, 0.12061139941215515, 0.12061139941215515, 0.12061139941215515, 0.12061139941215515, 0.12061139941215515, 0.12061139941215515, 0.12061139941215515, 0.12061139941215515, 0.12061139941215515, 0.12061139941215515, 0.12061139941215515, 0.12061139941215515, 0.12061139941215515, 0.12061139941215515, 0.12061139941215515, 0.12061139941215515, 0.12061139941215515, 0.12061139941215515, 0.12061139941215515, 0.12061139941215515, 0.12061139941215515, 0.12061139941215515, 0.12061139941215515, 0.12061139941215515, 0.12061139941215515, 0.12061139941215515, 0.12061139941215515, 0.12061139941215515, 0.12061139941215515, 0.12061139941215515, 0.12061139941215515, 0.12061139941215515, 0.12061139941215515, 0.12061139941215515, 0.12061139941215515, 0.12061139941215515, 0.12061139941215515, 0.12061139941215515, 0.12061139941215515, 0.12061139941215515, 0.12061139941215515, 0.12061139941215515, 0.12061139941215515, 0.12061139941215515, 0.12061139941215515, 0.12061139941215515, 0.12061139941215515, 0.12061139941215515, 0.12061139941215515, 0.12061139941215515, 0.12061139941215515, 0.12061139941215515, 0.12061139941215515, 0.12061139941215515, 0.12061139941215515]}, "parameters/mlp.mlp.4.bias": {"_type": "histogram", "values": [1.0, 0.0, 0.0, 0.0, 0.0, 0.0, 0.0, 0.0, 0.0, 0.0, 1.0, 0.0, 1.0, 0.0, 0.0, 0.0, 0.0, 0.0, 0.0, 0.0, 0.0, 0.0, 1.0, 0.0, 1.0, 0.0, 0.0, 1.0, 0.0, 0.0, 0.0, 1.0, 0.0, 1.0, 0.0, 0.0, 0.0, 2.0, 0.0, 1.0, 2.0, 0.0, 0.0, 1.0, 0.0, 0.0, 0.0, 0.0, 0.0, 0.0, 0.0, 0.0, 1.0, 0.0, 0.0, 0.0, 0.0, 0.0, 0.0, 0.0, 0.0, 0.0, 0.0, 1.0], "bins": [-0.0008622798486612737, -0.0008367851260118186, -0.0008112904615700245, -0.0007857957389205694, -0.0007603010162711143, -0.0007348062936216593, -0.0007093116291798651, -0.00068381690653041, -0.000658322183880955, -0.0006328275194391608, -0.0006073327967897058, -0.0005818380741402507, -0.0005563433514907956, -0.0005308486288413405, -0.0005053539643995464, -0.0004798592417500913, -0.0004543645482044667, -0.0004288698546588421, -0.000403375132009387, -0.0003778804384637624, -0.0003523857449181378, -0.0003268910222686827, -0.00030139629961922765, -0.0002759015769697726, -0.0002504069125279784, -0.00022491218987852335, -0.00019941746722906828, -0.00017392280278727412, -0.00014842808013781905, -0.00012293335748836398, -9.743863483890891e-05, -7.194397039711475e-05, -4.644924774765968e-05, -2.0954525098204613e-05, 4.540139343589544e-06, 3.0034861993044615e-05, 5.5529584642499685e-05, 8.102430729195476e-05, 0.00010651897173374891, 0.0001320137525908649, 0.00015750835882499814, 0.0001830030814744532, 0.00020849780412390828, 0.00023399252677336335, 0.0002594872494228184, 0.0002849819720722735, 0.00031047669472172856, 0.0003359713009558618, 0.0003614660236053169, 0.00038696074625477195, 0.000412455468904227, 0.0004379501915536821, 0.00046344491420313716, 0.0004889396368525922, 0.0005144342430867255, 0.0005399289657361805, 0.0005654236883856356, 0.0005909184110350907, 0.0006164131336845458, 0.0006419078563340008, 0.0006674025789834559, 0.0006928971852175891, 0.0007183919078670442, 0.0007438866305164993, 0.0007693813531659544]}, "parameters/linear.fc.weight": {"_type": "histogram", "values": [1.0, 2.0, 2.0, 3.0, 5.0, 8.0, 5.0, 8.0, 10.0, 24.0, 18.0, 33.0, 43.0, 56.0, 61.0, 71.0, 90.0, 113.0, 163.0, 171.0, 210.0, 255.0, 276.0, 367.0, 372.0, 453.0, 463.0, 517.0, 527.0, 789.0, 532.0, 542.0, 467.0, 511.0, 427.0, 368.0, 354.0, 307.0, 260.0, 222.0, 205.0, 145.0, 141.0, 95.0, 80.0, 54.0, 37.0, 44.0, 28.0, 16.0, 11.0, 11.0, 6.0, 5.0, 2.0, 1.0, 1.0, 0.0, 0.0, 2.0, 0.0, 0.0, 0.0, 2.0], "bins": [-2.4470252990722656, -2.364743232727051, -2.282460927963257, -2.200178861618042, -2.117896795272827, -2.035614490509033, -1.9533324241638184, -1.871050238609314, -1.7887680530548096, -1.7064859867095947, -1.6242038011550903, -1.541921615600586, -1.459639549255371, -1.3773573637008667, -1.2950751781463623, -1.2127931118011475, -1.130510926246643, -1.0482287406921387, -0.9659466743469238, -0.8836644887924194, -0.801382303237915, -0.7191002368927002, -0.6368180513381958, -0.5545358657836914, -0.47225379943847656, -0.3899714946746826, -0.3076894283294678, -0.22540736198425293, -0.14312505722045898, -0.06084299087524414, 0.021439075469970703, 0.10372138023376465, 0.1860034465789795, 0.26828551292419434, 0.3505678176879883, 0.4328498840332031, 0.515131950378418, 0.5974142551422119, 0.6796963214874268, 0.7619783878326416, 0.8442606925964355, 0.9265427589416504, 1.0088248252868652, 1.0911071300506592, 1.173389196395874, 1.2556712627410889, 1.3379535675048828, 1.4202356338500977, 1.5025177001953125, 1.5847997665405273, 1.6670823097229004, 1.7493643760681152, 1.83164644241333, 1.913928508758545, 1.9962105751037598, 2.0784926414489746, 2.1607751846313477, 2.2430572509765625, 2.3253393173217773, 2.407621383666992, 2.489903450012207, 2.572185516357422, 2.654468059539795, 2.7367501258850098, 2.8190321922302246]}, "parameters/mlp.mlp.1.bias": {"_type": "histogram", "values": [1.0, 1.0, 0.0, 0.0, 0.0, 0.0, 0.0, 0.0, 0.0, 0.0, 0.0, 0.0, 0.0, 0.0, 0.0, 0.0, 0.0, 0.0, 0.0, 0.0, 0.0, 0.0, 0.0, 1.0, 0.0, 0.0, 0.0, 0.0, 1.0, 0.0, 0.0, 0.0, 0.0, 0.0, 0.0, 0.0, 0.0, 0.0, 0.0, 0.0, 0.0, 0.0, 0.0, 0.0, 1.0, 1.0, 1.0, 0.0, 0.0, 1.0, 0.0, 0.0, 0.0, 0.0, 0.0, 0.0, 1.0, 1.0, 0.0, 1.0, 0.0, 1.0, 2.0, 2.0], "bins": [-1.119249701499939, -1.1096217632293701, -1.0999938249588013, -1.090366005897522, -1.0807380676269531, -1.0711101293563843, -1.0614821910858154, -1.0518542528152466, -1.0422263145446777, -1.0325984954833984, -1.0229705572128296, -1.0133426189422607, -1.003714680671692, -0.9940868020057678, -0.984458863735199, -0.9748309850692749, -0.965203046798706, -0.9555751085281372, -0.9459472298622131, -0.9363192915916443, -0.9266914129257202, -0.9170634746551514, -0.9074355363845825, -0.8978075981140137, -0.8881797194480896, -0.8785518407821655, -0.8689239025115967, -0.8592959642410278, -0.849668025970459, -0.8400401473045349, -0.8304122090339661, -0.820784330368042, -0.8111563920974731, -0.8015284538269043, -0.7919005751609802, -0.7822726368904114, -0.7726447582244873, -0.7630168199539185, -0.7533888816833496, -0.7437609434127808, -0.7341330647468567, -0.7245051860809326, -0.7148772478103638, -0.7052493095397949, -0.6956213712692261, -0.685993492603302, -0.6763655543327332, -0.6667376756668091, -0.6571097373962402, -0.6474817991256714, -0.6378539204597473, -0.6282259821891785, -0.6185981035232544, -0.6089701652526855, -0.5993422269821167, -0.5897143483161926, -0.5800864100456238, -0.5704584717750549, -0.5608305931091309, -0.551202654838562, -0.5415747165679932, -0.5319468379020691, -0.5223188996315002, -0.5126910209655762, -0.5030630826950073]}, "gradients/mlp.mlp.4.weight": {"_type": "histogram", "values": [1.0, 0.0, 0.0, 0.0, 0.0, 0.0, 0.0, 0.0, 0.0, 1.0, 0.0, 0.0, 0.0, 0.0, 0.0, 1.0, 0.0, 0.0, 1.0, 1.0, 0.0, 0.0, 0.0, 1.0, 2.0, 2.0, 2.0, 3.0, 5.0, 2.0, 3.0, 4.0, 6.0, 13.0, 8.0, 13.0, 19.0, 99.0, 31.0, 4.0, 2.0, 4.0, 3.0, 3.0, 4.0, 2.0, 2.0, 1.0, 1.0, 1.0, 0.0, 1.0, 0.0, 2.0, 3.0, 0.0, 0.0, 1.0, 0.0, 1.0, 1.0, 1.0, 0.0, 1.0], "bins": [-0.008395493030548096, -0.008174083195626736, -0.007952672429382801, -0.007731262594461441, -0.007509852293878794, -0.007288441993296146, -0.007067032158374786, -0.006845621857792139, -0.006624211557209492, -0.006402801722288132, -0.006181391421705484, -0.005959981121122837, -0.005738571286201477, -0.00551716098561883, -0.005295750685036182, -0.005074340850114822, -0.004852930549532175, -0.004631520248949528, -0.004410110414028168, -0.00418870011344552, -0.003967289812862873, -0.003745879977941513, -0.0035244696773588657, -0.0033030593767762184, -0.0030816495418548584, -0.002860239241272211, -0.0026388289406895638, -0.0024174186401069164, -0.0021960088051855564, -0.001974598504602909, -0.0017531882040202618, -0.0015317783690989017, -0.0013103680685162544, -0.001088957767933607, -0.0008675479330122471, -0.0006461376324295998, -0.00042472779750823975, -0.00020331703126430511, 1.80928036570549e-05, 0.00023950263857841492, 0.00046091340482234955, 0.0006823232397437096, 0.0009037330746650696, 0.0011251438409090042, 0.0013465536758303642, 0.0015679635107517242, 0.0017893742769956589, 0.002010784111917019, 0.002232193946838379, 0.0024536047130823135, 0.0026750145480036736, 0.002896425314247608, 0.003117835149168968, 0.003339244984090328, 0.003560655750334263, 0.003782065585255623, 0.004003475420176983, 0.0042248861864209175, 0.0044462960213422775, 0.0046677058562636375, 0.004889116622507572, 0.005110526457428932, 0.005331936292350292, 0.005553347058594227, 0.005774756893515587]}, "parameters/mlp.mlp.8.bias": {"_type": "histogram", "values": [0.0, 0.0, 0.0, 0.0, 0.0, 0.0, 0.0, 0.0, 0.0, 0.0, 0.0, 0.0, 0.0, 0.0, 0.0, 0.0, 0.0, 0.0, 0.0, 0.0, 0.0, 0.0, 0.0, 0.0, 0.0, 0.0, 0.0, 0.0, 0.0, 0.0, 0.0, 0.0, 1.0, 0.0, 0.0, 0.0, 0.0, 0.0, 0.0, 0.0, 0.0, 0.0, 0.0, 0.0, 0.0, 0.0, 0.0, 0.0, 0.0, 0.0, 0.0, 0.0, 0.0, 0.0, 0.0, 0.0, 0.0, 0.0, 0.0, 0.0, 0.0, 0.0, 0.0, 0.0], "bins": [-0.005761456675827503, -0.005761456675827503, -0.005761456675827503, -0.005761456675827503, -0.005761456675827503, -0.005761456675827503, -0.005761456675827503, -0.005761456675827503, -0.005761456675827503, -0.005761456675827503, -0.005761456675827503, -0.005761456675827503, -0.005761456675827503, -0.005761456675827503, -0.005761456675827503, -0.005761456675827503, -0.005761456675827503, -0.005761456675827503, -0.005761456675827503, -0.005761456675827503, -0.005761456675827503, -0.005761456675827503, -0.005761456675827503, -0.005761456675827503, -0.005761456675827503, -0.005761456675827503, -0.005761456675827503, -0.005761456675827503, -0.005761456675827503, -0.005761456675827503, -0.005761456675827503, -0.005761456675827503, -0.005761456675827503, -0.005761456675827503, -0.005761456675827503, -0.005761456675827503, -0.005761456675827503, -0.005761456675827503, -0.005761456675827503, -0.005761456675827503, -0.005761456675827503, -0.005761456675827503, -0.005761456675827503, -0.005761456675827503, -0.005761456675827503, -0.005761456675827503, -0.005761456675827503, -0.005761456675827503, -0.005761456675827503, -0.005761456675827503, -0.005761456675827503, -0.005761456675827503, -0.005761456675827503, -0.005761456675827503, -0.005761456675827503, -0.005761456675827503, -0.005761456675827503, -0.005761456675827503, -0.005761456675827503, -0.005761456675827503, -0.005761456675827503, -0.005761456675827503, -0.005761456675827503, -0.005761456675827503, -0.005761456675827503]}, "gradients/embedding.embedding.weight": {"_type": "histogram", "values": [2.0, 1.0, 2.0, 2.0, 1.0, 1.0, 1.0, 2.0, 3.0, 1.0, 1.0, 3.0, 2.0, 2.0, 6.0, 4.0, 5.0, 3.0, 7.0, 15.0, 11.0, 22.0, 23.0, 41.0, 72.0, 203.0, 2163.0, 156813.0, 208.0, 70.0, 38.0, 21.0, 33.0, 12.0, 11.0, 7.0, 7.0, 2.0, 8.0, 4.0, 5.0, 8.0, 6.0, 4.0, 0.0, 1.0, 2.0, 2.0, 2.0, 1.0, 1.0, 1.0, 0.0, 0.0, 2.0, 0.0, 0.0, 0.0, 1.0, 2.0, 0.0, 0.0, 0.0, 1.0], "bins": [-0.009789115749299526, -0.009428040124475956, -0.009066964499652386, -0.008705888874828815, -0.00834481231868267, -0.0079837366938591, -0.00762266106903553, -0.00726158544421196, -0.00690050981938839, -0.006539434194564819, -0.006178358569741249, -0.0058172824792563915, -0.005456206854432821, -0.005095131229609251, -0.0047340551391243935, -0.004372979514300823, -0.004011903889477253, -0.0036508282646536827, -0.0032897526398301125, -0.002928676549345255, -0.0025676009245216846, -0.0022065252996981144, -0.0018454492092132568, -0.0014843735843896866, -0.0011232979595661163, -0.0007622223347425461, -0.00040114670991897583, -4.007108509540558e-05, 0.0003210054710507393, 0.0006820810958743095, 0.0010431567206978798, 0.00140423234552145, 0.0017653079703450203, 0.0021263835951685905, 0.002487459219992161, 0.002848534844815731, 0.0032096104696393013, 0.003570687025785446, 0.003931762650609016, 0.004292838275432587, 0.004653913900256157, 0.005014989525079727, 0.005376065149903297, 0.005737140774726868, 0.0060982173308730125, 0.006459292955696583, 0.006820368580520153, 0.007181444205343723, 0.0075425198301672935, 0.007903595454990864, 0.008264671079814434, 0.008625746704638004, 0.008986822329461575, 0.009347897954285145, 0.009708973579108715, 0.010070049203932285, 0.010431126691401005, 0.010792202316224575, 0.011153277941048145, 0.011514353565871716, 0.011875429190695286, 0.012236504815518856, 0.012597580440342426, 0.012958656065165997, 0.013319731689989567]}, "parameters/mlp.mlp.0.bias": {"_type": "histogram", "values": [1.0, 0.0, 0.0, 0.0, 0.0, 0.0, 0.0, 0.0, 0.0, 0.0, 1.0, 0.0, 0.0, 0.0, 0.0, 0.0, 0.0, 0.0, 0.0, 2.0, 0.0, 1.0, 1.0, 1.0, 0.0, 0.0, 0.0, 0.0, 0.0, 0.0, 0.0, 1.0, 0.0, 0.0, 0.0, 0.0, 3.0, 0.0, 1.0, 0.0, 0.0, 1.0, 0.0, 1.0, 0.0, 0.0, 0.0, 0.0, 0.0, 0.0, 0.0, 0.0, 0.0, 0.0, 0.0, 0.0, 1.0, 0.0, 0.0, 0.0, 0.0, 0.0, 0.0, 1.0], "bins": [-0.0007902718498371542, -0.0007630836917087436, -0.0007358954753726721, -0.0007087073172442615, -0.0006815191591158509, -0.0006543309427797794, -0.0006271427846513689, -0.0005999546265229583, -0.0005727664101868868, -0.0005455782520584762, -0.0005183900939300656, -0.0004912018775939941, -0.00046401371946558356, -0.00043682553223334253, -0.0004096373450011015, -0.0003824491868726909, -0.0003552609996404499, -0.00032807281240820885, -0.00030088465427979827, -0.0002736964379437268, -0.0002465082798153162, -0.00021932012168690562, -0.00019213190535083413, -0.00016494374722242355, -0.00013775558909401298, -0.00011056737275794148, -8.33792146295309e-05, -5.619105650112033e-05, -2.9002840165048838e-05, -1.8146820366382599e-06, 2.5373476091772318e-05, 5.256169242784381e-05, 7.974985055625439e-05, 0.00010693800868466496, 0.00013412622502073646, 0.00016131438314914703, 0.0001885025412775576, 0.0002156907576136291, 0.0002428789739497006, 0.00027006707387045026, 0.00029725529020652175, 0.00032444350654259324, 0.0003516316064633429, 0.0003788198227994144, 0.0004060080391354859, 0.00043319613905623555, 0.00046038435539230704, 0.00048757257172837853, 0.0005147606716491282, 0.0005419488879851997, 0.0005691371043212712, 0.0005963252042420208, 0.0006235134205780923, 0.0006507016369141638, 0.0006778897368349135, 0.000705077953170985, 0.0007322661695070565, 0.0007594542694278061, 0.0007866424857638776, 0.0008138307020999491, 0.0008410188020206988, 0.0008682070183567703, 0.0008953952346928418, 0.0009225833346135914, 0.0009497715509496629]}, "gradients/mlp.mlp.1.weight": {"_type": "histogram", "values": [1.0, 0.0, 1.0, 0.0, 0.0, 0.0, 0.0, 0.0, 1.0, 0.0, 0.0, 0.0, 0.0, 0.0, 0.0, 0.0, 0.0, 0.0, 0.0, 0.0, 0.0, 0.0, 0.0, 0.0, 0.0, 2.0, 0.0, 1.0, 0.0, 0.0, 0.0, 1.0, 0.0, 2.0, 0.0, 1.0, 0.0, 0.0, 0.0, 0.0, 0.0, 1.0, 0.0, 0.0, 0.0, 0.0, 1.0, 1.0, 0.0, 1.0, 1.0, 0.0, 0.0, 0.0, 0.0, 0.0, 0.0, 0.0, 0.0, 0.0, 0.0, 0.0, 0.0, 1.0], "bins": [-0.011653280816972256, -0.011314318515360355, -0.01097535528242588, -0.01063639298081398, -0.01029743067920208, -0.00995846837759018, -0.009619505144655704, -0.009280542843043804, -0.00894157961010933, -0.008602617308497429, -0.008263655006885529, -0.007924692705273628, -0.007585729472339153, -0.007246767170727253, -0.006907804403454065, -0.006568842101842165, -0.006229879334568977, -0.00589091656729579, -0.005551954265683889, -0.005212991498410702, -0.004874029196798801, -0.004535066429525614, -0.004196103662252426, -0.003857141360640526, -0.003518178127706051, -0.0031792158260941505, -0.00284025352448225, -0.00250129122287035, -0.002162327989935875, -0.0018233656883239746, -0.0014844033867120743, -0.0011454401537775993, -0.000806477852165699, -0.0004675155505537987, -0.00012855231761932373, 0.0002104099839925766, 0.0005493722856044769, 0.0008883355185389519, 0.0012272978201508522, 0.0015662601217627525, 0.0019052224233746529, 0.002244185656309128, 0.002583147957921028, 0.0029221102595329285, 0.0032610734924674034, 0.0036000357940793037, 0.003938998095691204, 0.004277960397303104, 0.004616924561560154, 0.004955886863172054, 0.005294849164783955, 0.005633811466395855, 0.005972773768007755, 0.006311736069619656, 0.006650698371231556, 0.0069896625354886055, 0.007328624837100506, 0.007667587138712406, 0.008006549440324306, 0.008345511741936207, 0.008684474043548107, 0.009023438207805157, 0.009362400509417057, 0.009701362811028957, 0.010040325112640858]}, "gradients/mlp.mlp.8.weight": {"_type": "histogram", "values": [1.0, 0.0, 0.0, 1.0, 0.0, 0.0, 0.0, 0.0, 0.0, 1.0, 0.0, 0.0, 0.0, 0.0, 1.0, 1.0, 2.0, 1.0, 0.0, 0.0, 0.0, 0.0, 0.0, 0.0, 0.0, 0.0, 0.0, 0.0, 0.0, 0.0, 0.0, 0.0, 1.0, 1.0, 0.0, 0.0, 0.0, 1.0, 0.0, 0.0, 0.0, 0.0, 0.0, 0.0, 0.0, 0.0, 0.0, 0.0, 0.0, 0.0, 0.0, 0.0, 1.0, 1.0, 0.0, 0.0, 1.0, 0.0, 0.0, 0.0, 1.0, 0.0, 0.0, 1.0], "bins": [-0.007288694381713867, -0.007118184119462967, -0.006947673391550779, -0.006777163129299879, -0.0066066524013876915, -0.006436142139136791, -0.006265631411224604, -0.006095121148973703, -0.005924610421061516, -0.0057541001588106155, -0.005583589430898428, -0.005413079168647528, -0.00524256844073534, -0.00507205817848444, -0.00490154791623354, -0.004731037188321352, -0.004560526460409164, -0.004390016198158264, -0.004219505935907364, -0.004048995207995176, -0.0038784847129136324, -0.0037079742178320885, -0.0035374637227505445, -0.0033669532276690006, -0.0031964429654181004, -0.0030259322375059128, -0.0028554219752550125, -0.002684911247342825, -0.0025144009850919247, -0.002343890257179737, -0.002173379994928837, -0.0020028692670166492, -0.001832359004765749, -0.0016618487425148487, -0.0014913380146026611, -0.0013208277523517609, -0.0011503170244395733, -0.000979806762188673, -0.0008092960342764854, -0.0006387857720255852, -0.0004682750441133976, -0.00029776478186249733, -0.00012725405395030975, 4.3256208300590515e-05, 0.0002137669362127781, 0.00038427719846367836, 0.0005547879263758659, 0.0007252981886267662, 0.0008958084508776665, 0.0010663187131285667, 0.0012368299067020416, 0.001407340168952942, 0.0015778504312038422, 0.0017483606934547424, 0.0019188718870282173, 0.0020893821492791176, 0.002259892411530018, 0.002430402673780918, 0.002600913867354393, 0.0027714241296052933, 0.0029419343918561935, 0.003112444654107094, 0.0032829558476805687, 0.003453466109931469, 0.0036239763721823692]}, "gradients/mlp.mlp.0.weight": {"_type": "histogram", "values": [1.0, 1.0, 0.0, 0.0, 0.0, 0.0, 0.0, 0.0, 0.0, 0.0, 0.0, 1.0, 0.0, 2.0, 1.0, 0.0, 0.0, 2.0, 4.0, 1.0, 1.0, 1.0, 4.0, 3.0, 2.0, 7.0, 2.0, 10.0, 9.0, 18.0, 17.0, 27.0, 29.0, 44.0, 57.0, 57.0, 42.0, 37.0, 30.0, 26.0, 14.0, 18.0, 6.0, 11.0, 5.0, 5.0, 3.0, 4.0, 1.0, 4.0, 0.0, 2.0, 0.0, 1.0, 1.0, 0.0, 0.0, 0.0, 0.0, 0.0, 0.0, 0.0, 0.0, 1.0], "bins": [-0.008407946676015854, -0.008168087340891361, -0.007928228005766869, -0.007688368204981089, -0.007448508869856596, -0.007208649069070816, -0.006968789733946323, -0.006728930398821831, -0.006489071063697338, -0.006249211262911558, -0.0060093519277870655, -0.0057694921270012856, -0.005529632791876793, -0.0052897734567523, -0.005049914121627808, -0.004810054786503315, -0.004570194985717535, -0.004330335650593042, -0.004090475849807262, -0.0038506165146827698, -0.003610757179558277, -0.003370897378772497, -0.0031310380436480045, -0.002891178708523512, -0.002651318907737732, -0.0024114595726132393, -0.0021716002374887466, -0.001931740902364254, -0.001691881101578474, -0.0014520217664539814, -0.0012121624313294888, -0.0009723026305437088, -0.0007324432954192162, -0.0004925839602947235, -0.00025272462517023087, -1.286529004573822e-05, 0.00022699497640132904, 0.0004668543115258217, 0.0007067136466503143, 0.000946572981774807, 0.0011864323168992996, 0.0014262916520237923, 0.0016661519184708595, 0.0019060112535953522, 0.002145870588719845, 0.0023857299238443375, 0.00262558925896883, 0.0028654485940933228, 0.00310530886054039, 0.0033451681956648827, 0.0035850275307893753, 0.003824886865913868, 0.004064746201038361, 0.004304605536162853, 0.004544464871287346, 0.004784325137734413, 0.005024184472858906, 0.0052640438079833984, 0.005503903143107891, 0.005743762478232384, 0.005983621813356876, 0.006223482079803944, 0.006463341414928436, 0.006703200750052929, 0.006943060085177422]}, "parameters/mlp.mlp.8.weight": {"_type": "histogram", "values": [2.0, 1.0, 2.0, 2.0, 0.0, 0.0, 0.0, 0.0, 0.0, 0.0, 0.0, 0.0, 0.0, 0.0, 0.0, 0.0, 0.0, 0.0, 0.0, 0.0, 0.0, 0.0, 0.0, 0.0, 0.0, 0.0, 0.0, 0.0, 0.0, 0.0, 0.0, 0.0, 0.0, 0.0, 0.0, 0.0, 0.0, 0.0, 0.0, 0.0, 0.0, 0.0, 0.0, 0.0, 0.0, 0.0, 0.0, 0.0, 0.0, 0.0, 0.0, 0.0, 0.0, 0.0, 0.0, 0.0, 0.0, 0.0, 0.0, 0.0, 2.0, 1.0, 3.0, 3.0], "bins": [-0.5549116134643555, -0.5407838225364685, -0.5266559720039368, -0.5125281810760498, -0.49840036034584045, -0.4842725396156311, -0.47014474868774414, -0.4560169279575348, -0.44188910722732544, -0.4277612864971161, -0.41363346576690674, -0.3995056748390198, -0.3853778541088104, -0.3712500333786011, -0.3571222424507141, -0.34299442172050476, -0.3288666009902954, -0.31473878026008606, -0.3006109595298767, -0.28648316860198975, -0.2723553478717804, -0.25822752714157104, -0.24409973621368408, -0.22997191548347473, -0.21584409475326538, -0.20171627402305603, -0.18758845329284668, -0.17346066236495972, -0.15933284163475037, -0.14520502090454102, -0.13107722997665405, -0.1169494092464447, -0.10282158851623535, -0.088693767786026, -0.07456594705581665, -0.06043815612792969, -0.04631030559539795, -0.032182514667510986, -0.018054723739624023, -0.003926873207092285, 0.010200917720794678, 0.02432870864868164, 0.03845655918121338, 0.05258435010910034, 0.0667121410369873, 0.08083999156951904, 0.094967782497406, 0.10909563302993774, 0.12322342395782471, 0.13735121488571167, 0.1514790654182434, 0.16560685634613037, 0.1797347068786621, 0.19386249780654907, 0.20799028873443604, 0.22211813926696777, 0.23624593019485474, 0.2503737211227417, 0.26450157165527344, 0.2786293625831604, 0.29275715351104736, 0.3068850040435791, 0.32101279497146606, 0.3351406455039978, 0.34926843643188477]}, "parameters/mlp.mlp.1.weight": {"_type": "histogram", "values": [1.0, 0.0, 0.0, 0.0, 2.0, 1.0, 0.0, 0.0, 0.0, 0.0, 0.0, 1.0, 0.0, 0.0, 2.0, 0.0, 0.0, 0.0, 0.0, 0.0, 0.0, 1.0, 0.0, 0.0, 0.0, 1.0, 0.0, 0.0, 1.0, 0.0, 0.0, 2.0, 0.0, 0.0, 1.0, 0.0, 0.0, 0.0, 0.0, 0.0, 1.0, 0.0, 0.0, 0.0, 1.0, 0.0, 0.0, 0.0, 0.0, 0.0, 0.0, 0.0, 0.0, 0.0, 0.0, 0.0, 0.0, 0.0, 0.0, 0.0, 0.0, 0.0, 0.0, 1.0], "bins": [0.7477927803993225, 0.750188410282135, 0.7525840401649475, 0.7549796104431152, 0.7573752403259277, 0.7597708702087402, 0.7621665000915527, 0.7645620703697205, 0.766957700252533, 0.7693533301353455, 0.771748960018158, 0.7741445899009705, 0.7765401601791382, 0.7789357900619507, 0.7813314199447632, 0.7837270498275757, 0.7861226797103882, 0.7885182499885559, 0.7909138798713684, 0.7933095097541809, 0.7957051396369934, 0.7981007099151611, 0.8004963397979736, 0.8028919696807861, 0.8052875995635986, 0.8076832294464111, 0.8100787997245789, 0.8124744296073914, 0.8148700594902039, 0.8172656893730164, 0.8196612596511841, 0.8220568895339966, 0.8244525194168091, 0.8268481492996216, 0.8292437791824341, 0.8316393494606018, 0.8340349793434143, 0.8364306092262268, 0.8388262391090393, 0.841221809387207, 0.8436174392700195, 0.846013069152832, 0.8484086990356445, 0.850804328918457, 0.8531998991966248, 0.8555955290794373, 0.8579911589622498, 0.8603867888450623, 0.86278235912323, 0.8651779890060425, 0.867573618888855, 0.8699692487716675, 0.87236487865448, 0.8747605085372925, 0.8771560788154602, 0.8795517086982727, 0.8819473385810852, 0.8843429088592529, 0.8867385387420654, 0.8891341686248779, 0.8915297985076904, 0.8939254283905029, 0.8963210582733154, 0.8987166285514832, 0.9011122584342957]}, "Validation AUC": 0.7995374232792445, "Test AUC": 0.7991477258418539}
