{"graph_0": {"_type": "graph-file", "path": "media/graph/graph_0_summary_2544fc38.graph.json", "sha256": "2544fc382306a7a910d4ba45ebf466ac94c9dfa2cc9d1c5a66214adb9ed75ed4", "size": 1552}, "_runtime": 4249.504385948181, "_timestamp": 1587480570.409869, "Total Loss": 207.46354761719704, "_step": 156400, "parameters/mlp.mlp.0.bias": {"_type": "histogram", "values": [1.0, 0.0, 0.0, 0.0, 0.0, 0.0, 0.0, 0.0, 0.0, 0.0, 0.0, 0.0, 0.0, 0.0, 0.0, 0.0, 0.0, 0.0, 0.0, 0.0, 0.0, 0.0, 0.0, 0.0, 0.0, 1.0, 0.0, 1.0, 2.0, 0.0, 0.0, 0.0, 0.0, 0.0, 2.0, 0.0, 2.0, 1.0, 0.0, 0.0, 0.0, 1.0, 1.0, 0.0, 0.0, 0.0, 1.0, 0.0, 0.0, 0.0, 0.0, 0.0, 0.0, 0.0, 1.0, 0.0, 0.0, 0.0, 0.0, 1.0, 0.0, 0.0, 0.0, 1.0], "bins": [-0.00028227060101926327, -0.0002740051713772118, -0.00026573974173516035, -0.00025747428298927844, -0.000249208853347227, -0.00024094342370517552, -0.00023267799406312406, -0.00022441254986915737, -0.0002161471056751907, -0.00020788167603313923, -0.00019961624639108777, -0.00019135080219712108, -0.00018308537255506963, -0.00017481992836110294, -0.00016655449871905148, -0.0001582890545250848, -0.00015002362488303334, -0.00014175819524098188, -0.0001334927510470152, -0.00012522732140496373, -0.00011696187721099705, -0.00010869644756894559, -0.0001004310033749789, -9.216557373292744e-05, -8.390014409087598e-05, -7.56346998969093e-05, -6.736927025485784e-05, -5.910382606089115e-05, -5.083839641883969e-05, -4.2572952224873006e-05, -3.430750803090632e-05, -2.604207838885486e-05, -1.7776648746803403e-05, -9.511219104751945e-06, -1.2457894627004862e-06, 7.019669283181429e-06, 1.5285098925232887e-05, 2.3550528567284346e-05, 3.1815958209335804e-05, 4.008141695521772e-05, 4.834684659726918e-05, 5.6612276239320636e-05, 6.48777058813721e-05, 7.314313552342355e-05, 8.140859426930547e-05, 8.967402391135693e-05, 9.793945355340838e-05, 0.00010620488319545984, 0.0001144703128375113, 0.00012273577158339322, 0.00013100120122544467, 0.00013926663086749613, 0.0001475320605095476, 0.0001557975192554295, 0.00016406294889748096, 0.00017232837853953242, 0.00018059380818158388, 0.00018885923782363534, 0.00019712469656951725, 0.0002053901262115687, 0.00021365558495745063, 0.0002219210145995021, 0.00023018644424155354, 0.000238451873883605, 0.00024671730352565646]}, "gradients/mlp.mlp.8.bias": {"_type": "histogram", "values": [0.0, 0.0, 0.0, 0.0, 0.0, 0.0, 0.0, 0.0, 0.0, 0.0, 0.0, 0.0, 0.0, 0.0, 0.0, 0.0, 0.0, 0.0, 0.0, 0.0, 0.0, 0.0, 0.0, 0.0, 0.0, 0.0, 0.0, 0.0, 0.0, 0.0, 0.0, 0.0, 1.0, 0.0, 0.0, 0.0, 0.0, 0.0, 0.0, 0.0, 0.0, 0.0, 0.0, 0.0, 0.0, 0.0, 0.0, 0.0, 0.0, 0.0, 0.0, 0.0, 0.0, 0.0, 0.0, 0.0, 0.0, 0.0, 0.0, 0.0, 0.0, 0.0, 0.0, 0.0], "bins": [-0.0016544649843126535, -0.0016544649843126535, -0.0016544649843126535, -0.0016544649843126535, -0.0016544649843126535, -0.0016544649843126535, -0.0016544649843126535, -0.0016544649843126535, -0.0016544649843126535, -0.0016544649843126535, -0.0016544649843126535, -0.0016544649843126535, -0.0016544649843126535, -0.0016544649843126535, -0.0016544649843126535, -0.0016544649843126535, -0.0016544649843126535, -0.0016544649843126535, -0.0016544649843126535, -0.0016544649843126535, -0.0016544649843126535, -0.0016544649843126535, -0.0016544649843126535, -0.0016544649843126535, -0.0016544649843126535, -0.0016544649843126535, -0.0016544649843126535, -0.0016544649843126535, -0.0016544649843126535, -0.0016544649843126535, -0.0016544649843126535, -0.0016544649843126535, -0.0016544649843126535, -0.0016544649843126535, -0.0016544649843126535, -0.0016544649843126535, -0.0016544649843126535, -0.0016544649843126535, -0.0016544649843126535, -0.0016544649843126535, -0.0016544649843126535, -0.0016544649843126535, -0.0016544649843126535, -0.0016544649843126535, -0.0016544649843126535, -0.0016544649843126535, -0.0016544649843126535, -0.0016544649843126535, -0.0016544649843126535, -0.0016544649843126535, -0.0016544649843126535, -0.0016544649843126535, -0.0016544649843126535, -0.0016544649843126535, -0.0016544649843126535, -0.0016544649843126535, -0.0016544649843126535, -0.0016544649843126535, -0.0016544649843126535, -0.0016544649843126535, -0.0016544649843126535, -0.0016544649843126535, -0.0016544649843126535, -0.0016544649843126535, -0.0016544649843126535]}, "parameters/mlp.mlp.1.bias": {"_type": "histogram", "values": [1.0, 0.0, 0.0, 0.0, 0.0, 0.0, 0.0, 1.0, 0.0, 0.0, 0.0, 0.0, 1.0, 1.0, 0.0, 0.0, 0.0, 0.0, 0.0, 0.0, 0.0, 1.0, 1.0, 1.0, 1.0, 0.0, 0.0, 0.0, 0.0, 0.0, 0.0, 0.0, 0.0, 0.0, 0.0, 0.0, 0.0, 0.0, 0.0, 0.0, 0.0, 0.0, 0.0, 0.0, 0.0, 0.0, 0.0, 2.0, 1.0, 1.0, 1.0, 0.0, 0.0, 0.0, 0.0, 0.0, 0.0, 0.0, 0.0, 0.0, 0.0, 0.0, 0.0, 3.0], "bins": [-1.3563352823257446, -1.3357574939727783, -1.3151798248291016, -1.2946021556854248, -1.2740243673324585, -1.2534465789794922, -1.2328689098358154, -1.2122912406921387, -1.1917134523391724, -1.171135663986206, -1.1505579948425293, -1.1299803256988525, -1.1094025373458862, -1.08882474899292, -1.0682470798492432, -1.0476694107055664, -1.0270916223526, -1.0065138339996338, -0.985936164855957, -0.9653584361076355, -0.944780707359314, -0.9242029786109924, -0.9036252498626709, -0.8830475211143494, -0.8624697923660278, -0.8418920636177063, -0.8213143348693848, -0.8007366061210632, -0.7801588773727417, -0.7595811486244202, -0.7390034198760986, -0.7184256911277771, -0.6978479623794556, -0.677270233631134, -0.6566925048828125, -0.636114776134491, -0.6155370473861694, -0.5949593186378479, -0.5743815898895264, -0.5538038611412048, -0.5332261323928833, -0.5126484036445618, -0.49207067489624023, -0.4714929461479187, -0.45091521739959717, -0.43033748865127563, -0.4097597599029541, -0.38918203115463257, -0.36860430240631104, -0.3480266332626343, -0.32744884490966797, -0.30687105655670166, -0.2862933874130249, -0.26571571826934814, -0.24513792991638184, -0.22456014156341553, -0.20398247241973877, -0.183404803276062, -0.1628270149230957, -0.1422492265701294, -0.12167155742645264, -0.10109388828277588, -0.08051609992980957, -0.05993831157684326, -0.039360642433166504]}, "gradients/mlp.mlp.1.bias": {"_type": "histogram", "values": [2.0, 0.0, 0.0, 0.0, 0.0, 0.0, 0.0, 0.0, 0.0, 0.0, 0.0, 0.0, 1.0, 0.0, 0.0, 0.0, 0.0, 0.0, 0.0, 0.0, 0.0, 0.0, 0.0, 0.0, 0.0, 0.0, 0.0, 0.0, 0.0, 0.0, 0.0, 0.0, 0.0, 0.0, 0.0, 1.0, 3.0, 0.0, 1.0, 2.0, 2.0, 0.0, 1.0, 0.0, 0.0, 1.0, 0.0, 0.0, 0.0, 0.0, 0.0, 0.0, 0.0, 1.0, 0.0, 0.0, 0.0, 0.0, 0.0, 0.0, 0.0, 0.0, 0.0, 1.0], "bins": [-0.01742357574403286, -0.0169768538326025, -0.016530131921172142, -0.016083408147096634, -0.015636686235666275, -0.015189964324235916, -0.014743242412805557, -0.014296520501375198, -0.013849797658622265, -0.013403074815869331, -0.012956352904438972, -0.012509630993008614, -0.012062909081578255, -0.011616186238825321, -0.011169464327394962, -0.010722741484642029, -0.01027601957321167, -0.009829297661781311, -0.009382574819028378, -0.008935852907598019, -0.008489130064845085, -0.008042408153414726, -0.007595686241984367, -0.007148963399231434, -0.006702241487801075, -0.006255519576370716, -0.005808796733617783, -0.005362074822187424, -0.004915352910757065, -0.004468630068004131, -0.004021908156573772, -0.003575185313820839, -0.00312846340239048, -0.002681741490960121, -0.0022350186482071877, -0.0017882958054542542, -0.0013415738940238953, -0.0008948519825935364, -0.0004481300711631775, -1.4081597328186035e-06, 0.0004453156143426895, 0.0008920375257730484, 0.0013387594372034073, 0.0017854813486337662, 0.002232203260064125, 0.002678925171494484, 0.003125648945569992, 0.003572370857000351, 0.00401909276843071, 0.004465814679861069, 0.004912536591291428, 0.005359260365366936, 0.005805982276797295, 0.0062527041882276535, 0.006699426099658012, 0.007146148011088371, 0.00759286992251873, 0.008039593696594238, 0.008486315608024597, 0.008933037519454956, 0.009379759430885315, 0.009826481342315674, 0.010273205116391182, 0.01071992702782154, 0.0111666489392519]}, "parameters/mlp.mlp.5.bias": {"_type": "histogram", "values": [3.0, 1.0, 1.0, 0.0, 0.0, 0.0, 0.0, 0.0, 0.0, 0.0, 0.0, 0.0, 0.0, 0.0, 0.0, 0.0, 0.0, 0.0, 0.0, 0.0, 0.0, 0.0, 0.0, 0.0, 0.0, 0.0, 0.0, 0.0, 0.0, 0.0, 0.0, 0.0, 0.0, 0.0, 0.0, 0.0, 0.0, 0.0, 0.0, 0.0, 0.0, 0.0, 0.0, 0.0, 0.0, 0.0, 0.0, 0.0, 0.0, 0.0, 0.0, 0.0, 0.0, 0.0, 0.0, 1.0, 0.0, 0.0, 1.0, 2.0, 2.0, 3.0, 1.0, 1.0], "bins": [-0.711216926574707, -0.6975890398025513, -0.6839611530303955, -0.6703332662582397, -0.6567054390907288, -0.643077552318573, -0.6294496655464172, -0.6158217787742615, -0.6021938920021057, -0.58856600522995, -0.574938178062439, -0.5613102912902832, -0.5476824045181274, -0.5340545177459717, -0.5204266309738159, -0.5067987442016602, -0.4931708574295044, -0.479543000459671, -0.46591511368751526, -0.4522872269153595, -0.4386593699455261, -0.42503148317337036, -0.4114035964012146, -0.39777570962905884, -0.38414785265922546, -0.3705199658870697, -0.35689207911491394, -0.34326422214508057, -0.3296363353729248, -0.31600844860076904, -0.3023805618286133, -0.2887527048587799, -0.27512481808662415, -0.2614969313144684, -0.247869074344635, -0.23424118757247925, -0.2206133008003235, -0.20698541402816772, -0.19335752725601196, -0.1797296404838562, -0.16610181331634521, -0.15247392654418945, -0.1388460397720337, -0.12521815299987793, -0.11159026622772217, -0.0979623794555664, -0.08433449268341064, -0.07070666551589966, -0.057078778743743896, -0.043450891971588135, -0.029823005199432373, -0.01619511842727661, -0.0025672316551208496, 0.011060655117034912, 0.0246884822845459, 0.03831636905670166, 0.05194425582885742, 0.06557214260101318, 0.07920002937316895, 0.09282791614532471, 0.10645580291748047, 0.12008363008499146, 0.13371151685714722, 0.14733940362930298, 0.16096729040145874]}, "gradients/linear.bias": {"_type": "histogram", "values": [0.0, 0.0, 0.0, 0.0, 0.0, 0.0, 0.0, 0.0, 0.0, 0.0, 0.0, 0.0, 0.0, 0.0, 0.0, 0.0, 0.0, 0.0, 0.0, 0.0, 0.0, 0.0, 0.0, 0.0, 0.0, 0.0, 0.0, 0.0, 0.0, 0.0, 0.0, 0.0, 1.0, 0.0, 0.0, 0.0, 0.0, 0.0, 0.0, 0.0, 0.0, 0.0, 0.0, 0.0, 0.0, 0.0, 0.0, 0.0, 0.0, 0.0, 0.0, 0.0, 0.0, 0.0, 0.0, 0.0, 0.0, 0.0, 0.0, 0.0, 0.0, 0.0, 0.0, 0.0], "bins": [-0.0016544649843126535, -0.0016544649843126535, -0.0016544649843126535, -0.0016544649843126535, -0.0016544649843126535, -0.0016544649843126535, -0.0016544649843126535, -0.0016544649843126535, -0.0016544649843126535, -0.0016544649843126535, -0.0016544649843126535, -0.0016544649843126535, -0.0016544649843126535, -0.0016544649843126535, -0.0016544649843126535, -0.0016544649843126535, -0.0016544649843126535, -0.0016544649843126535, -0.0016544649843126535, -0.0016544649843126535, -0.0016544649843126535, -0.0016544649843126535, -0.0016544649843126535, -0.0016544649843126535, -0.0016544649843126535, -0.0016544649843126535, -0.0016544649843126535, -0.0016544649843126535, -0.0016544649843126535, -0.0016544649843126535, -0.0016544649843126535, -0.0016544649843126535, -0.0016544649843126535, -0.0016544649843126535, -0.0016544649843126535, -0.0016544649843126535, -0.0016544649843126535, -0.0016544649843126535, -0.0016544649843126535, -0.0016544649843126535, -0.0016544649843126535, -0.0016544649843126535, -0.0016544649843126535, -0.0016544649843126535, -0.0016544649843126535, -0.0016544649843126535, -0.0016544649843126535, -0.0016544649843126535, -0.0016544649843126535, -0.0016544649843126535, -0.0016544649843126535, -0.0016544649843126535, -0.0016544649843126535, -0.0016544649843126535, -0.0016544649843126535, -0.0016544649843126535, -0.0016544649843126535, -0.0016544649843126535, -0.0016544649843126535, -0.0016544649843126535, -0.0016544649843126535, -0.0016544649843126535, -0.0016544649843126535, -0.0016544649843126535, -0.0016544649843126535]}, "gradients/mlp.mlp.0.weight": {"_type": "histogram", "values": [1.0, 0.0, 0.0, 0.0, 1.0, 1.0, 1.0, 1.0, 0.0, 2.0, 2.0, 0.0, 1.0, 0.0, 1.0, 3.0, 2.0, 6.0, 5.0, 2.0, 3.0, 4.0, 5.0, 4.0, 9.0, 9.0, 11.0, 16.0, 16.0, 15.0, 29.0, 22.0, 41.0, 70.0, 42.0, 30.0, 28.0, 21.0, 18.0, 9.0, 15.0, 10.0, 4.0, 6.0, 6.0, 1.0, 5.0, 7.0, 3.0, 4.0, 3.0, 3.0, 2.0, 2.0, 1.0, 2.0, 1.0, 2.0, 1.0, 1.0, 0.0, 0.0, 1.0, 1.0], "bins": [-0.006452884990721941, -0.006261896342039108, -0.006070908159017563, -0.00587991951033473, -0.005688930861651897, -0.005497942678630352, -0.005306954029947519, -0.005115965381264687, -0.004924977198243141, -0.0047339885495603085, -0.004542999900877476, -0.00435201171785593, -0.004161023069173098, -0.003970034420490265, -0.0037790462374687195, -0.0035880575887858868, -0.0033970691729336977, -0.0032060807570815086, -0.003015092108398676, -0.002824103692546487, -0.002633115276694298, -0.002442126628011465, -0.0022511384449899197, -0.002060149796307087, -0.0018691611476242542, -0.0016781729646027088, -0.001487184315919876, -0.0012961956672370434, -0.001105207484215498, -0.0009142188355326653, -0.0007232301868498325, -0.0005322420038282871, -0.0003412533551454544, -0.0001502647064626217, 4.072347655892372e-05, 0.00023171212524175644, 0.00042270077392458916, 0.0006136889569461346, 0.0008046776056289673, 0.0009956662543118, 0.0011866544373333454, 0.0013776426203548908, 0.0015686317346990108, 0.0017596199177205563, 0.0019506081007421017, 0.0021415972150862217, 0.002332585398107767, 0.0025235735811293125, 0.0027145626954734325, 0.002905550878494978, 0.0030965390615165234, 0.0032875281758606434, 0.003478516358882189, 0.003669504541903734, 0.0038604936562478542, 0.0040514818392694, 0.004242470022290945, 0.004433459136635065, 0.0046244473196566105, 0.004815435502678156, 0.005006424617022276, 0.005197412800043821, 0.005388400983065367, 0.005579390097409487, 0.005770378280431032]}, "parameters/mlp.mlp.8.weight": {"_type": "histogram", "values": [3.0, 1.0, 1.0, 0.0, 0.0, 0.0, 0.0, 0.0, 0.0, 0.0, 0.0, 0.0, 0.0, 0.0, 0.0, 0.0, 0.0, 0.0, 0.0, 0.0, 0.0, 0.0, 0.0, 0.0, 0.0, 0.0, 0.0, 0.0, 0.0, 0.0, 0.0, 0.0, 0.0, 0.0, 0.0, 0.0, 0.0, 0.0, 0.0, 0.0, 0.0, 0.0, 0.0, 0.0, 0.0, 0.0, 0.0, 0.0, 0.0, 0.0, 0.0, 0.0, 0.0, 0.0, 0.0, 0.0, 0.0, 0.0, 0.0, 2.0, 2.0, 3.0, 3.0, 1.0], "bins": [-0.7378946542739868, -0.724799394607544, -0.7117041349411011, -0.6986088752746582, -0.6855136156082153, -0.6724183559417725, -0.6593230962753296, -0.6462277770042419, -0.6331325173377991, -0.6200372576713562, -0.6069419980049133, -0.5938467383384705, -0.5807514786720276, -0.5676562190055847, -0.5545609593391418, -0.5414656400680542, -0.5283703804016113, -0.5152751207351685, -0.5021798610687256, -0.4890846014022827, -0.47598934173583984, -0.462894082069397, -0.4497988224029541, -0.43670356273651123, -0.42360830307006836, -0.4105130136013031, -0.39741775393486023, -0.38432249426841736, -0.3712272346019745, -0.3581319749355316, -0.34503668546676636, -0.3319414258003235, -0.3188461661338806, -0.30575090646743774, -0.2926556468009949, -0.2795603573322296, -0.26646509766578674, -0.25336983799934387, -0.240274578332901, -0.22717928886413574, -0.21408402919769287, -0.20098876953125, -0.18789350986480713, -0.17479825019836426, -0.1617029905319214, -0.14860773086547852, -0.13551247119903564, -0.12241721153259277, -0.1093219518661499, -0.09622663259506226, -0.08313137292861938, -0.07003611326217651, -0.05694085359573364, -0.04384559392929077, -0.0307503342628479, -0.01765507459640503, -0.004559814929962158, 0.008535444736480713, 0.021630704402923584, 0.03472602367401123, 0.0478212833404541, 0.06091654300689697, 0.07401180267333984, 0.08710706233978271, 0.10020232200622559]}, "parameters/mlp.mlp.4.weight": {"_type": "histogram", "values": [1.0, 0.0, 0.0, 0.0, 0.0, 0.0, 0.0, 0.0, 0.0, 0.0, 0.0, 0.0, 0.0, 0.0, 0.0, 0.0, 0.0, 0.0, 0.0, 0.0, 0.0, 0.0, 0.0, 0.0, 2.0, 3.0, 11.0, 13.0, 21.0, 27.0, 11.0, 3.0, 3.0, 4.0, 9.0, 22.0, 27.0, 13.0, 7.0, 6.0, 1.0, 3.0, 1.0, 3.0, 1.0, 4.0, 2.0, 4.0, 5.0, 4.0, 4.0, 6.0, 6.0, 8.0, 4.0, 6.0, 4.0, 0.0, 5.0, 1.0, 0.0, 0.0, 0.0, 1.0], "bins": [-1.1982470750808716, -1.1653417348861694, -1.1324363946914673, -1.0995311737060547, -1.0666258335113525, -1.0337204933166504, -1.0008151531219482, -0.9679098129272461, -0.9350045323371887, -0.9020992517471313, -0.8691939115524292, -0.836288571357727, -0.8033832311630249, -0.7704779505729675, -0.7375726103782654, -0.704667329788208, -0.6717619895935059, -0.6388566493988037, -0.6059513688087463, -0.5730460286140442, -0.5401407480239868, -0.5072354078292847, -0.4743300676345825, -0.44142478704452515, -0.408519446849823, -0.37561410665512085, -0.3427088260650635, -0.30980348587036133, -0.2768981456756592, -0.2439928650856018, -0.21108752489089966, -0.17818224430084229, -0.14527690410614014, -0.11237156391143799, -0.07946622371673584, -0.04656100273132324, -0.013655662536621094, 0.019249677658081055, 0.0521550178527832, 0.08506035804748535, 0.11796557903289795, 0.1508709192276001, 0.18377625942230225, 0.2166815996170044, 0.24958693981170654, 0.2824922800064087, 0.3153975009918213, 0.34830284118652344, 0.3812081813812256, 0.41411352157592773, 0.4470188617706299, 0.4799240827560425, 0.5128294229507446, 0.5457347631454468, 0.5786401033401489, 0.6115454435348511, 0.6444507837295532, 0.6773560047149658, 0.710261344909668, 0.7431666851043701, 0.7760720252990723, 0.8089772462844849, 0.841882586479187, 0.8747879266738892, 0.9076932668685913]}, "parameters/mlp.mlp.4.bias": {"_type": "histogram", "values": [1.0, 0.0, 0.0, 0.0, 0.0, 1.0, 0.0, 0.0, 0.0, 0.0, 0.0, 0.0, 0.0, 0.0, 0.0, 0.0, 0.0, 0.0, 0.0, 0.0, 0.0, 0.0, 0.0, 0.0, 0.0, 0.0, 0.0, 1.0, 2.0, 3.0, 2.0, 3.0, 0.0, 0.0, 0.0, 1.0, 1.0, 0.0, 0.0, 0.0, 0.0, 0.0, 0.0, 0.0, 0.0, 0.0, 0.0, 0.0, 0.0, 0.0, 0.0, 0.0, 0.0, 0.0, 0.0, 0.0, 0.0, 0.0, 0.0, 0.0, 0.0, 0.0, 0.0, 1.0], "bins": [-0.0014829454012215137, -0.0014324422227218747, -0.0013819390442222357, -0.0013314358657225966, -0.0012809326872229576, -0.0012304295087233186, -0.0011799263302236795, -0.0011294231517240405, -0.0010789199732244015, -0.0010284167947247624, -0.0009779136162251234, -0.0009274104377254844, -0.0008769072592258453, -0.0008264040807262063, -0.0007759009022265673, -0.0007253977237269282, -0.0006748945452272892, -0.0006243913667276502, -0.0005738881882280111, -0.0005233850097283721, -0.00047288183122873306, -0.00042237865272909403, -0.000371875474229455, -0.00032137229572981596, -0.0002708691172301769, -0.0002203659387305379, -0.00016986276023089886, -0.00011935958173125982, -6.885640323162079e-05, -1.8353224731981754e-05, 3.214995376765728e-05, 8.265313226729631e-05, 0.00013315631076693535, 0.00018365948926657438, 0.00023416266776621342, 0.00028466584626585245, 0.0003351690247654915, 0.0003856722032651305, 0.00043617538176476955, 0.00048667844384908676, 0.0005371817387640476, 0.0005876850336790085, 0.0006381880957633257, 0.0006886911578476429, 0.0007391944527626038, 0.0007896977476775646, 0.0008402008097618818, 0.000890703871846199, 0.0009412071667611599, 0.0009917104616761208, 0.001042213523760438, 0.0010927165858447552, 0.001143219880759716, 0.001193723175674677, 0.001244226237758994, 0.0012947292998433113, 0.0013452325947582722, 0.001395735889673233, 0.0014462389517575502, 0.0014967420138418674, 0.0015472453087568283, 0.0015977486036717892, 0.0016482516657561064, 0.0016987547278404236, 0.0017492580227553844]}, "gradients/mlp.mlp.4.bias": {"_type": "histogram", "values": [1.0, 0.0, 0.0, 0.0, 0.0, 0.0, 0.0, 0.0, 0.0, 0.0, 0.0, 0.0, 0.0, 0.0, 0.0, 0.0, 0.0, 0.0, 0.0, 0.0, 0.0, 0.0, 0.0, 0.0, 0.0, 0.0, 0.0, 0.0, 0.0, 0.0, 0.0, 0.0, 0.0, 0.0, 0.0, 0.0, 0.0, 1.0, 0.0, 0.0, 0.0, 0.0, 0.0, 3.0, 8.0, 0.0, 0.0, 0.0, 0.0, 1.0, 0.0, 0.0, 0.0, 0.0, 0.0, 0.0, 0.0, 0.0, 0.0, 1.0, 0.0, 0.0, 0.0, 1.0], "bins": [-1.994339982047677e-08, -1.9497178982419427e-08, -1.9050958144362085e-08, -1.860473730630474e-08, -1.81585164682474e-08, -1.7712295630190056e-08, -1.7266074792132713e-08, -1.681985395407537e-08, -1.6373633116018027e-08, -1.5927412277960684e-08, -1.548119143990334e-08, -1.5034970601845998e-08, -1.4588749763788655e-08, -1.4142528925731312e-08, -1.369630808767397e-08, -1.3250087249616627e-08, -1.2803866411559284e-08, -1.235764557350194e-08, -1.1911424735444598e-08, -1.1465203897387255e-08, -1.1018983059329912e-08, -1.0572762221272569e-08, -1.0126541383215226e-08, -9.680320545157883e-09, -9.23409970710054e-09, -8.787878869043197e-09, -8.341658030985855e-09, -7.895437192928512e-09, -7.449216354871169e-09, -7.002995516813826e-09, -6.556774678756483e-09, -6.11055384069914e-09, -5.664333002641797e-09, -5.218112164584454e-09, -4.771891326527111e-09, -4.325670488469768e-09, -3.879449650412425e-09, -3.4332288123550825e-09, -2.9870079742977396e-09, -2.5407871362403966e-09, -2.0945662981830537e-09, -1.6483454601257108e-09, -1.202124622068368e-09, -7.55903784011025e-10, -3.0968294595368207e-10, 1.3653789210366085e-10, 5.827587301610038e-10, 1.0289795682183467e-09, 1.4752004062756896e-09, 1.9214212443330325e-09, 2.3676420823903754e-09, 2.8138629204477184e-09, 3.2600837585050613e-09, 3.706304596562404e-09, 4.152525434619747e-09, 4.59874627267709e-09, 5.044967110734433e-09, 5.491187948791776e-09, 5.937408786849119e-09, 6.383629624906462e-09, 6.829850462963805e-09, 7.2760713010211475e-09, 7.72229213907849e-09, 8.168512977135833e-09, 8.614733815193176e-09]}, "parameters/mlp.mlp.5.weight": {"_type": "histogram", "values": [1.0, 2.0, 4.0, 2.0, 0.0, 1.0, 0.0, 0.0, 0.0, 0.0, 1.0, 0.0, 0.0, 0.0, 0.0, 0.0, 0.0, 0.0, 0.0, 0.0, 0.0, 0.0, 0.0, 0.0, 0.0, 0.0, 0.0, 0.0, 0.0, 0.0, 0.0, 0.0, 0.0, 0.0, 0.0, 0.0, 0.0, 0.0, 0.0, 0.0, 0.0, 0.0, 0.0, 0.0, 0.0, 0.0, 0.0, 0.0, 0.0, 0.0, 0.0, 0.0, 0.0, 0.0, 0.0, 0.0, 0.0, 0.0, 0.0, 0.0, 1.0, 0.0, 2.0, 2.0], "bins": [0.2667129635810852, 0.28168609738349915, 0.2966592013835907, 0.31163233518600464, 0.3266054391860962, 0.34157857298851013, 0.3565516769886017, 0.3715248107910156, 0.3864979147911072, 0.4014710485935211, 0.41644418239593506, 0.4314172863960266, 0.44639039039611816, 0.4613635241985321, 0.47633665800094604, 0.4913097620010376, 0.5062828660011292, 0.5212559700012207, 0.536229133605957, 0.5512022376060486, 0.5661753416061401, 0.5811485052108765, 0.596121609210968, 0.6110947132110596, 0.6260678768157959, 0.6410409212112427, 0.656014084815979, 0.6709871888160706, 0.6859602928161621, 0.7009334564208984, 0.71590656042099, 0.7308796644210815, 0.7458528280258179, 0.7608259320259094, 0.775799036026001, 0.7907721400260925, 0.8057453036308289, 0.8207184076309204, 0.835691511631012, 0.8506646156311035, 0.8656377792358398, 0.8806108832359314, 0.895583987236023, 0.9105570912361145, 0.9255302548408508, 0.9405033588409424, 0.9554764628410339, 0.9704495668411255, 0.9854227304458618, 1.0003957748413086, 1.015368938446045, 1.0303421020507812, 1.0453152656555176, 1.0602883100509644, 1.0752613544464111, 1.0902345180511475, 1.1052076816558838, 1.1201808452606201, 1.135153889656067, 1.1501270532608032, 1.16510009765625, 1.1800732612609863, 1.1950464248657227, 1.210019588470459, 1.2249926328659058]}, "parameters/mlp.mlp.0.weight": {"_type": "histogram", "values": [2.0, 0.0, 0.0, 0.0, 5.0, 5.0, 1.0, 0.0, 0.0, 0.0, 0.0, 3.0, 2.0, 6.0, 4.0, 9.0, 3.0, 9.0, 13.0, 9.0, 9.0, 18.0, 9.0, 13.0, 12.0, 17.0, 20.0, 12.0, 19.0, 20.0, 35.0, 42.0, 38.0, 31.0, 19.0, 16.0, 8.0, 12.0, 13.0, 5.0, 11.0, 10.0, 5.0, 3.0, 7.0, 8.0, 1.0, 1.0, 4.0, 1.0, 2.0, 1.0, 0.0, 2.0, 3.0, 1.0, 4.0, 1.0, 2.0, 0.0, 0.0, 3.0, 0.0, 3.0], "bins": [-1.2905904054641724, -1.2489430904388428, -1.2072958946228027, -1.1656485795974731, -1.1240012645721436, -1.0823540687561035, -1.040706753730774, -0.9990594387054443, -0.9574121832847595, -0.9157649278640747, -0.8741176128387451, -0.8324703574180603, -0.7908231019973755, -0.7491757869720459, -0.7075285315513611, -0.6658812165260315, -0.6242339611053467, -0.5825867056846619, -0.5409393906593323, -0.49929213523864746, -0.45764482021331787, -0.41599756479263306, -0.37435030937194824, -0.33270299434661865, -0.29105573892593384, -0.24940848350524902, -0.20776116847991943, -0.16611385345458984, -0.1244666576385498, -0.08281934261322021, -0.041172027587890625, 0.00047516822814941406, 0.042122483253479004, 0.0837697982788086, 0.12541699409484863, 0.16706430912017822, 0.2087116241455078, 0.25035881996154785, 0.29200613498687744, 0.33365345001220703, 0.3753007650375366, 0.41694796085357666, 0.45859527587890625, 0.5002425909042358, 0.5418897867202759, 0.5835371017456055, 0.6251844167709351, 0.6668316125869751, 0.7084789276123047, 0.7501262426376343, 0.7917734384536743, 0.8334208726882935, 0.8750680685043335, 0.9167152643203735, 0.9583626985549927, 1.0000098943710327, 1.0416570901870728, 1.083304524421692, 1.124951720237732, 1.166598916053772, 1.2082463502883911, 1.2498935461044312, 1.2915407419204712, 1.3331881761550903, 1.3748353719711304]}, "parameters/embedding.embedding.weight": {"_type": "histogram", "values": [1.0, 1.0, 0.0, 0.0, 0.0, 1.0, 0.0, 2.0, 1.0, 1.0, 2.0, 2.0, 10.0, 14.0, 18.0, 25.0, 33.0, 57.0, 101.0, 159.0, 244.0, 398.0, 520.0, 865.0, 1302.0, 1817.0, 2646.0, 3506.0, 4638.0, 5947.0, 7446.0, 8937.0, 10397.0, 12009.0, 13483.0, 18405.0, 12637.0, 11185.0, 9605.0, 8186.0, 6579.0, 5177.0, 3987.0, 2940.0, 2158.0, 1483.0, 1046.0, 702.0, 460.0, 302.0, 158.0, 96.0, 72.0, 24.0, 24.0, 24.0, 14.0, 7.0, 5.0, 8.0, 3.0, 1.0, 0.0, 1.0], "bins": [-4.175595760345459, -4.05713415145874, -3.9386720657348633, -3.8202104568481445, -3.7017486095428467, -3.583286762237549, -3.46482515335083, -3.3463633060455322, -3.2279014587402344, -3.1094396114349365, -2.9909777641296387, -2.87251615524292, -2.754054307937622, -2.635592460632324, -2.5171308517456055, -2.3986690044403076, -2.2802071571350098, -2.161745309829712, -2.043283462524414, -1.9248218536376953, -1.8063600063323975, -1.6878981590270996, -1.5694365501403809, -1.450974702835083, -1.3325128555297852, -1.2140510082244873, -1.0955891609191895, -0.9771275520324707, -0.8586657047271729, -0.740203857421875, -0.6217422485351562, -0.5032804012298584, -0.38481855392456055, -0.2663567066192627, -0.14789485931396484, -0.029433250427246094, 0.08902883529663086, 0.2074904441833496, 0.32595205307006836, 0.4444141387939453, 0.5628757476806641, 0.6813373565673828, 0.7997994422912598, 0.9182610511779785, 1.0367226600646973, 1.1551847457885742, 1.273646354675293, 1.39210844039917, 1.5105700492858887, 1.6290316581726074, 1.7474937438964844, 1.8659553527832031, 1.98441743850708, 2.102879047393799, 2.2213406562805176, 2.3398027420043945, 2.4582643508911133, 2.576725959777832, 2.695188045501709, 2.8136496543884277, 2.9321112632751465, 3.0505733489990234, 3.169034957885742, 3.287497043609619, 3.405958652496338]}, "parameters/mlp.mlp.8.bias": {"_type": "histogram", "values": [0.0, 0.0, 0.0, 0.0, 0.0, 0.0, 0.0, 0.0, 0.0, 0.0, 0.0, 0.0, 0.0, 0.0, 0.0, 0.0, 0.0, 0.0, 0.0, 0.0, 0.0, 0.0, 0.0, 0.0, 0.0, 0.0, 0.0, 0.0, 0.0, 0.0, 0.0, 0.0, 1.0, 0.0, 0.0, 0.0, 0.0, 0.0, 0.0, 0.0, 0.0, 0.0, 0.0, 0.0, 0.0, 0.0, 0.0, 0.0, 0.0, 0.0, 0.0, 0.0, 0.0, 0.0, 0.0, 0.0, 0.0, 0.0, 0.0, 0.0, 0.0, 0.0, 0.0, 0.0], "bins": [-0.05476886406540871, -0.05476886406540871, -0.05476886406540871, -0.05476886406540871, -0.05476886406540871, -0.05476886406540871, -0.05476886406540871, -0.05476886406540871, -0.05476886406540871, -0.05476886406540871, -0.05476886406540871, -0.05476886406540871, -0.05476886406540871, -0.05476886406540871, -0.05476886406540871, -0.05476886406540871, -0.05476886406540871, -0.05476886406540871, -0.05476886406540871, -0.05476886406540871, -0.05476886406540871, -0.05476886406540871, -0.05476886406540871, -0.05476886406540871, -0.05476886406540871, -0.05476886406540871, -0.05476886406540871, -0.05476886406540871, -0.05476886406540871, -0.05476886406540871, -0.05476886406540871, -0.05476886406540871, -0.05476886406540871, -0.05476886406540871, -0.05476886406540871, -0.05476886406540871, -0.05476886406540871, -0.05476886406540871, -0.05476886406540871, -0.05476886406540871, -0.05476886406540871, -0.05476886406540871, -0.05476886406540871, -0.05476886406540871, -0.05476886406540871, -0.05476886406540871, -0.05476886406540871, -0.05476886406540871, -0.05476886406540871, -0.05476886406540871, -0.05476886406540871, -0.05476886406540871, -0.05476886406540871, -0.05476886406540871, -0.05476886406540871, -0.05476886406540871, -0.05476886406540871, -0.05476886406540871, -0.05476886406540871, -0.05476886406540871, -0.05476886406540871, -0.05476886406540871, -0.05476886406540871, -0.05476886406540871, -0.05476886406540871]}, "parameters/linear.bias": {"_type": "histogram", "values": [0.0, 0.0, 0.0, 0.0, 0.0, 0.0, 0.0, 0.0, 0.0, 0.0, 0.0, 0.0, 0.0, 0.0, 0.0, 0.0, 0.0, 0.0, 0.0, 0.0, 0.0, 0.0, 0.0, 0.0, 0.0, 0.0, 0.0, 0.0, 0.0, 0.0, 0.0, 0.0, 1.0, 0.0, 0.0, 0.0, 0.0, 0.0, 0.0, 0.0, 0.0, 0.0, 0.0, 0.0, 0.0, 0.0, 0.0, 0.0, 0.0, 0.0, 0.0, 0.0, 0.0, 0.0, 0.0, 0.0, 0.0, 0.0, 0.0, 0.0, 0.0, 0.0, 0.0, 0.0], "bins": [0.07069172710180283, 0.07069172710180283, 0.07069172710180283, 0.07069172710180283, 0.07069172710180283, 0.07069172710180283, 0.07069172710180283, 0.07069172710180283, 0.07069172710180283, 0.07069172710180283, 0.07069172710180283, 0.07069172710180283, 0.07069172710180283, 0.07069172710180283, 0.07069172710180283, 0.07069172710180283, 0.07069172710180283, 0.07069172710180283, 0.07069172710180283, 0.07069172710180283, 0.07069172710180283, 0.07069172710180283, 0.07069172710180283, 0.07069172710180283, 0.07069172710180283, 0.07069172710180283, 0.07069172710180283, 0.07069172710180283, 0.07069172710180283, 0.07069172710180283, 0.07069172710180283, 0.07069172710180283, 0.07069172710180283, 0.07069172710180283, 0.07069172710180283, 0.07069172710180283, 0.07069172710180283, 0.07069172710180283, 0.07069172710180283, 0.07069172710180283, 0.07069172710180283, 0.07069172710180283, 0.07069172710180283, 0.07069172710180283, 0.07069172710180283, 0.07069172710180283, 0.07069172710180283, 0.07069172710180283, 0.07069172710180283, 0.07069172710180283, 0.07069172710180283, 0.07069172710180283, 0.07069172710180283, 0.07069172710180283, 0.07069172710180283, 0.07069172710180283, 0.07069172710180283, 0.07069172710180283, 0.07069172710180283, 0.07069172710180283, 0.07069172710180283, 0.07069172710180283, 0.07069172710180283, 0.07069172710180283, 0.07069172710180283]}, "parameters/linear.fc.weight": {"_type": "histogram", "values": [1.0, 0.0, 0.0, 0.0, 0.0, 1.0, 1.0, 1.0, 4.0, 5.0, 8.0, 12.0, 16.0, 20.0, 26.0, 34.0, 43.0, 51.0, 73.0, 74.0, 93.0, 137.0, 167.0, 181.0, 225.0, 260.0, 299.0, 357.0, 404.0, 470.0, 496.0, 548.0, 556.0, 862.0, 536.0, 536.0, 482.0, 453.0, 450.0, 399.0, 350.0, 305.0, 209.0, 179.0, 130.0, 120.0, 86.0, 89.0, 77.0, 31.0, 43.0, 25.0, 22.0, 16.0, 6.0, 7.0, 4.0, 2.0, 6.0, 2.0, 0.0, 1.0, 0.0, 1.0], "bins": [-3.2572710514068604, -3.159081220626831, -3.0608913898468018, -2.9627017974853516, -2.8645119667053223, -2.766322135925293, -2.6681323051452637, -2.5699424743652344, -2.471752643585205, -2.373563051223755, -2.2753732204437256, -2.1771833896636963, -2.078993558883667, -1.9808038473129272, -1.882614016532898, -1.7844243049621582, -1.686234474182129, -1.5880446434020996, -1.4898549318313599, -1.3916651010513306, -1.2934753894805908, -1.1952855587005615, -1.0970957279205322, -0.9989058971405029, -0.9007160663604736, -0.8025264739990234, -0.7043366432189941, -0.6061468124389648, -0.5079569816589355, -0.40976715087890625, -0.31157755851745605, -0.21338772773742676, -0.11519789695739746, -0.017008066177368164, 0.08118176460266113, 0.17937135696411133, 0.2775611877441406, 0.3757510185241699, 0.4739408493041992, 0.5721306800842285, 0.6703202724456787, 0.768510103225708, 0.8666999340057373, 0.9648897647857666, 1.063079595565796, 1.1612694263458252, 1.2594592571258545, 1.3576490879058838, 1.455838918685913, 1.5540282726287842, 1.6522181034088135, 1.7504079341888428, 1.848597764968872, 1.9467875957489014, 2.0449774265289307, 2.14316725730896, 2.2413570880889893, 2.3395469188690186, 2.437736749649048, 2.535926103591919, 2.6341159343719482, 2.7323057651519775, 2.830495595932007, 2.928685426712036, 3.0268752574920654]}, "gradients/mlp.mlp.0.bias": {"_type": "histogram", "values": [1.0, 0.0, 0.0, 0.0, 0.0, 0.0, 0.0, 0.0, 0.0, 0.0, 1.0, 0.0, 0.0, 0.0, 0.0, 0.0, 0.0, 0.0, 0.0, 0.0, 0.0, 1.0, 0.0, 1.0, 0.0, 2.0, 1.0, 1.0, 1.0, 0.0, 1.0, 0.0, 1.0, 0.0, 1.0, 0.0, 0.0, 1.0, 0.0, 0.0, 0.0, 0.0, 0.0, 0.0, 1.0, 0.0, 0.0, 0.0, 0.0, 0.0, 0.0, 0.0, 0.0, 1.0, 0.0, 0.0, 0.0, 0.0, 0.0, 0.0, 0.0, 0.0, 0.0, 1.0], "bins": [-1.172793417936191e-09, -1.1271552580183197e-09, -1.0815170981004485e-09, -1.0358789381825773e-09, -9.90240778264706e-10, -9.446026183468348e-10, -8.989644584289636e-10, -8.533262985110923e-10, -8.076881385932211e-10, -7.620499786753498e-10, -7.164118187574786e-10, -6.707736588396074e-10, -6.251354989217361e-10, -5.794973390038649e-10, -5.338591790859937e-10, -4.882210191681224e-10, -4.425828592502512e-10, -3.9694469933237997e-10, -3.5130653941450873e-10, -3.056683794966375e-10, -2.6003021957876626e-10, -2.1439205966089503e-10, -1.687538997430238e-10, -1.2311573982515256e-10, -7.747757990728132e-11, -3.183941998941009e-11, 1.3798739928461146e-11, 5.943689984633238e-11, 1.0507505976420362e-10, 1.5071321968207485e-10, 1.9635137959994609e-10, 2.419895395178173e-10, 2.8762769943568856e-10, 3.332658593535598e-10, 3.78904019271431e-10, 4.2454217918930226e-10, 4.701803391071735e-10, 5.158184990250447e-10, 5.61456658942916e-10, 6.070948188607872e-10, 6.527329787786584e-10, 6.983711386965297e-10, 7.440092986144009e-10, 7.896474585322721e-10, 8.352856184501434e-10, 8.809237783680146e-10, 9.265619382858858e-10, 9.72200098203757e-10, 1.0178382581216283e-09, 1.0634764180394995e-09, 1.1091145779573708e-09, 1.154752737875242e-09, 1.2003908977931133e-09, 1.2460290577109845e-09, 1.2916672176288557e-09, 1.337305377546727e-09, 1.3829435374645982e-09, 1.4285816973824694e-09, 1.4742198573003407e-09, 1.519858017218212e-09, 1.5654961771360831e-09, 1.6111343370539544e-09, 1.6567724969718256e-09, 1.7024106568896968e-09, 1.748048816807568e-09]}, "gradients/embedding.embedding.weight": {"_type": "histogram", "values": [1.0, 0.0, 0.0, 1.0, 0.0, 0.0, 1.0, 1.0, 0.0, 0.0, 1.0, 0.0, 0.0, 1.0, 5.0, 3.0, 4.0, 4.0, 6.0, 14.0, 22.0, 24.0, 49.0, 76.0, 103.0, 203.0, 306.0, 679.0, 1691.0, 153810.0, 1467.0, 571.0, 328.0, 181.0, 111.0, 70.0, 43.0, 26.0, 23.0, 11.0, 12.0, 7.0, 2.0, 2.0, 3.0, 1.0, 2.0, 2.0, 0.0, 0.0, 1.0, 3.0, 0.0, 0.0, 0.0, 0.0, 0.0, 0.0, 0.0, 0.0, 0.0, 0.0, 0.0, 1.0], "bins": [-0.008795511908829212, -0.008496862836182117, -0.008198213763535023, -0.007899563759565353, -0.007600915152579546, -0.007302265614271164, -0.007003616541624069, -0.0067049674689769745, -0.00640631839632988, -0.006107668858021498, -0.005809019785374403, -0.005510370247066021, -0.005211721174418926, -0.0049130721017718315, -0.004614423029124737, -0.004315773490816355, -0.00401712441816926, -0.0037184753455221653, -0.0034198258072137833, -0.0031211767345666885, -0.002822527661919594, -0.0025238781236112118, -0.002225229050964117, -0.0019265799783170223, -0.0016279304400086403, -0.0013292813673615456, -0.0010306322947144508, -0.0007319832220673561, -0.0004333341494202614, -0.00013468414545059204, 0.00016396492719650269, 0.0004626139998435974, 0.0007612630724906921, 0.0010599121451377869, 0.0013585612177848816, 0.0016572102904319763, 0.0019558602944016457, 0.0022545093670487404, 0.002553158439695835, 0.00285180751234293, 0.0031504565849900246, 0.0034491056576371193, 0.0037477556616067886, 0.004046404734253883, 0.004345053806900978, 0.004643702879548073, 0.0049423519521951675, 0.005241001024842262, 0.005539651028811932, 0.005838300101459026, 0.006136949174106121, 0.006435598246753216, 0.0067342473194003105, 0.007032896392047405, 0.0073315454646945, 0.007630194537341595, 0.00792884360998869, 0.008227492682635784, 0.008526143617928028, 0.008824792690575123, 0.009123441763222218, 0.009422090835869312, 0.009720739908516407, 0.010019388981163502, 0.010318038053810596]}, "gradients/mlp.mlp.5.weight": {"_type": "histogram", "values": [1.0, 0.0, 0.0, 0.0, 0.0, 0.0, 0.0, 0.0, 0.0, 0.0, 0.0, 0.0, 0.0, 0.0, 0.0, 0.0, 1.0, 0.0, 0.0, 0.0, 0.0, 0.0, 0.0, 0.0, 0.0, 0.0, 2.0, 0.0, 2.0, 2.0, 1.0, 0.0, 3.0, 2.0, 1.0, 0.0, 0.0, 0.0, 0.0, 0.0, 0.0, 0.0, 0.0, 0.0, 0.0, 0.0, 0.0, 0.0, 0.0, 0.0, 0.0, 0.0, 0.0, 0.0, 0.0, 0.0, 0.0, 0.0, 0.0, 0.0, 0.0, 0.0, 0.0, 1.0], "bins": [-0.00727725587785244, -0.0070326607674360275, -0.006788065657019615, -0.0065434700809419155, -0.006298874970525503, -0.006054279860109091, -0.005809684284031391, -0.005565089173614979, -0.0053204940631985664, -0.005075898952782154, -0.004831303842365742, -0.004586708266288042, -0.00434211315587163, -0.004097518045455217, -0.0038529227022081614, -0.0036083273589611053, -0.003363732248544693, -0.0031191371381282806, -0.0028745420277118683, -0.0026299464516341686, -0.0023853513412177563, -0.002140756230801344, -0.0018961606547236443, -0.001651565544307232, -0.0014069704338908195, -0.0011623753234744072, -0.0009177802130579948, -0.0006731846369802952, -0.00042858952656388283, -0.00018399441614747047, 6.060115993022919e-05, 0.00030519627034664154, 0.0005497913807630539, 0.0007943864911794662, 0.0010389816015958786, 0.001283576712012291, 0.0015281718224287033, 0.0017727678641676903, 0.0020173629745841026, 0.002261958085000515, 0.0025065531954169273, 0.0027511483058333397, 0.002995743416249752, 0.0032403385266661644, 0.0034849345684051514, 0.0037295296788215637, 0.003974124789237976, 0.004218719899654388, 0.004463315010070801, 0.004707910120487213, 0.0049525052309036255, 0.005197100341320038, 0.00544169545173645, 0.005686291493475437, 0.0059308866038918495, 0.006175481714308262, 0.006420076824724674, 0.006664671935141087, 0.006909267045557499, 0.007153862155973911, 0.007398458197712898, 0.007643053308129311, 0.007887648418545723, 0.008132243528962135, 0.008376838639378548]}, "gradients/mlp.mlp.1.weight": {"_type": "histogram", "values": [1.0, 0.0, 0.0, 0.0, 0.0, 0.0, 0.0, 0.0, 0.0, 0.0, 0.0, 0.0, 0.0, 0.0, 0.0, 0.0, 0.0, 0.0, 0.0, 0.0, 0.0, 0.0, 0.0, 0.0, 0.0, 0.0, 0.0, 0.0, 0.0, 0.0, 0.0, 0.0, 0.0, 0.0, 0.0, 0.0, 0.0, 0.0, 0.0, 0.0, 0.0, 0.0, 2.0, 0.0, 0.0, 2.0, 1.0, 1.0, 0.0, 2.0, 4.0, 0.0, 0.0, 0.0, 1.0, 0.0, 0.0, 1.0, 0.0, 0.0, 0.0, 0.0, 0.0, 1.0], "bins": [-0.019186625257134438, -0.018794596195220947, -0.018402565270662308, -0.018010536208748817, -0.017618505284190178, -0.017226476222276688, -0.016834445297718048, -0.016442416235804558, -0.016050387173891068, -0.015658356249332428, -0.015266326256096363, -0.014874296262860298, -0.014482267200946808, -0.014090236276388168, -0.013698207214474678, -0.013306177221238613, -0.012914147228002548, -0.012522117234766483, -0.012130087241530418, -0.011738058179616928, -0.011346027255058289, -0.010953998193144798, -0.010561968199908733, -0.010169938206672668, -0.009777908213436604, -0.009385878220200539, -0.008993848226964474, -0.008601818233728409, -0.008209789171814919, -0.007817759178578854, -0.007425729185342789, -0.007033699192106724, -0.006641669198870659, -0.006249639205634594, -0.005857609212398529, -0.005465579219162464, -0.005073549225926399, -0.004681520164012909, -0.004289490170776844, -0.003897460177540779, -0.0035054292529821396, -0.0031134001910686493, -0.002721371129155159, -0.0023293402045965195, -0.0019373111426830292, -0.0015452802181243896, -0.0011532511562108994, -0.0007612202316522598, -0.00036919116973876953, 2.2837892174720764e-05, 0.0004148688167333603, 0.0008068978786468506, 0.0011989288032054901, 0.0015909578651189804, 0.00198298878967762, 0.0023750178515911102, 0.0027670469135046005, 0.00315907783806324, 0.0035511068999767303, 0.00394313782453537, 0.00433516688644886, 0.0047271978110075, 0.00511922687292099, 0.0055112577974796295, 0.00590328685939312]}, "gradients/mlp.mlp.8.weight": {"_type": "histogram", "values": [1.0, 1.0, 0.0, 0.0, 0.0, 0.0, 0.0, 0.0, 0.0, 0.0, 1.0, 0.0, 0.0, 0.0, 0.0, 1.0, 0.0, 0.0, 0.0, 1.0, 1.0, 0.0, 0.0, 0.0, 2.0, 0.0, 0.0, 0.0, 1.0, 0.0, 0.0, 0.0, 0.0, 0.0, 0.0, 1.0, 0.0, 0.0, 0.0, 0.0, 0.0, 0.0, 0.0, 0.0, 0.0, 0.0, 0.0, 0.0, 0.0, 0.0, 0.0, 0.0, 0.0, 1.0, 0.0, 1.0, 0.0, 0.0, 0.0, 0.0, 2.0, 1.0, 0.0, 1.0], "bins": [-0.003418903797864914, -0.00326482392847538, -0.003110744059085846, -0.002956664189696312, -0.002802584320306778, -0.002648504450917244, -0.0024944248143583536, -0.0023403449449688196, -0.0021862650755792856, -0.0020321852061897516, -0.0018781053368002176, -0.0017240255838260055, -0.0015699457144364715, -0.0014158659614622593, -0.0012617860920727253, -0.0011077062226831913, -0.0009536263532936573, -0.0007995464839041233, -0.0006454666145145893, -0.0004913867451250553, -0.0003373068757355213, -0.00018322723917663097, -2.9147369787096977e-05, 0.00012493249960243702, 0.000279012368991971, 0.000433092238381505, 0.0005871718749403954, 0.0007412517443299294, 0.0008953316137194633, 0.0010494114831089973, 0.0012034913524985313, 0.0013575712218880653, 0.0015116510912775993, 0.0016657309606671333, 0.0018198108300566673, 0.0019738906994462013, 0.0021279705688357353, 0.0022820504382252693, 0.0024361303076148033, 0.0025902101770043373, 0.0027442900463938713, 0.002898369450122118, 0.003052449319511652, 0.003206529188901186, 0.00336060905829072, 0.003514688927680254, 0.003668768797069788, 0.003822848666459322, 0.003976928535848856, 0.00413100840523839, 0.004285088274627924, 0.004439167678356171, 0.004593247547745705, 0.004747327417135239, 0.004901407286524773, 0.005055487155914307, 0.005209567025303841, 0.005363646894693375, 0.005517726764082909, 0.005671806633472443, 0.005825886502861977, 0.005979966372251511, 0.006134046241641045, 0.006288126111030579, 0.006442205980420113]}, "gradients/mlp.mlp.4.weight": {"_type": "histogram", "values": [1.0, 0.0, 0.0, 0.0, 0.0, 0.0, 0.0, 0.0, 2.0, 2.0, 2.0, 0.0, 1.0, 1.0, 1.0, 2.0, 6.0, 3.0, 4.0, 5.0, 7.0, 12.0, 18.0, 25.0, 62.0, 36.0, 16.0, 6.0, 11.0, 7.0, 5.0, 5.0, 1.0, 4.0, 0.0, 2.0, 2.0, 0.0, 2.0, 1.0, 0.0, 0.0, 1.0, 1.0, 0.0, 0.0, 0.0, 0.0, 0.0, 1.0, 0.0, 0.0, 0.0, 0.0, 0.0, 0.0, 0.0, 0.0, 0.0, 0.0, 0.0, 0.0, 0.0, 1.0], "bins": [-0.0014032559702172875, -0.0013466582167893648, -0.001290060463361442, -0.0012334627099335194, -0.0011768648400902748, -0.001120267086662352, -0.0010636693332344294, -0.0010070715798065066, -0.000950473768170923, -0.0008938760147430003, -0.0008372782031074166, -0.0007806804496794939, -0.0007240826962515712, -0.0006674848846159875, -0.0006108871311880648, -0.0005542893195524812, -0.0004976915661245584, -0.0004410938126966357, -0.000384496059268713, -0.00032789818942546844, -0.0002713004359975457, -0.000214702682569623, -0.00015810492914170027, -0.00010150717571377754, -4.4909422285854816e-05, 1.1688447557389736e-05, 6.828620098531246e-05, 0.0001248839544132352, 0.0001814817078411579, 0.00023807946126908064, 0.0002946773311123252, 0.0003512750845402479, 0.00040787283796817064, 0.00046447059139609337, 0.0005210683448240161, 0.0005776662146672606, 0.0006342638516798615, 0.0006908617215231061, 0.0007474595913663507, 0.0008040572283789515, 0.0008606550982221961, 0.000917252735234797, 0.0009738506050780416, 0.001030448474921286, 0.001087046111933887, 0.0011436439817771316, 0.0012002416187897325, 0.001256839488632977, 0.001313437125645578, 0.0013700349954888225, 0.001426632865332067, 0.001483230502344668, 0.0015398283721879125, 0.0015964260092005134, 0.001653023879043758, 0.0017096217488870025, 0.0017662193858996034, 0.001822817255742848, 0.0018794148927554488, 0.0019360127625986934, 0.0019926107488572598, 0.002049208153039217, 0.0021058060228824615, 0.002162403892725706, 0.0022190017625689507]}, "gradients/mlp.mlp.5.bias": {"_type": "histogram", "values": [1.0, 0.0, 0.0, 0.0, 0.0, 0.0, 0.0, 0.0, 0.0, 0.0, 0.0, 0.0, 0.0, 0.0, 0.0, 0.0, 1.0, 0.0, 0.0, 0.0, 0.0, 0.0, 0.0, 1.0, 0.0, 0.0, 2.0, 1.0, 1.0, 3.0, 4.0, 1.0, 0.0, 0.0, 0.0, 0.0, 0.0, 0.0, 0.0, 0.0, 0.0, 0.0, 0.0, 0.0, 0.0, 0.0, 0.0, 0.0, 0.0, 0.0, 0.0, 0.0, 0.0, 0.0, 0.0, 0.0, 0.0, 0.0, 0.0, 0.0, 0.0, 0.0, 0.0, 1.0], "bins": [-0.010327573865652084, -0.00997118093073368, -0.009614788927137852, -0.009258395992219448, -0.008902003057301044, -0.00854561012238264, -0.008189218118786812, -0.007832825183868408, -0.007476432248950005, -0.007120039779692888, -0.006763647310435772, -0.006407254375517368, -0.006050861906260252, -0.005694468971341848, -0.005338076502084732, -0.004981683567166328, -0.004625291097909212, -0.004268898628652096, -0.003912505693733692, -0.003556113224476576, -0.0031997202895581722, -0.002843327820301056, -0.0024869348853826523, -0.0021305419504642487, -0.0017741499468684196, -0.001417757011950016, -0.0010613640770316124, -0.0007049720734357834, -0.00034857913851737976, 7.813796401023865e-06, 0.0003642067313194275, 0.0007205987349152565, 0.0010769916698336601, 0.0014333846047520638, 0.0017897766083478928, 0.0021461695432662964, 0.0025025624781847, 0.0028589554131031036, 0.0032153474166989326, 0.0035717403516173363, 0.00392813328653574, 0.004284525290131569, 0.0046409182250499725, 0.004997311159968376, 0.00535370409488678, 0.005710097029805183, 0.006066489964723587, 0.006422881036996841, 0.006779273971915245, 0.007135666906833649, 0.007492059841752052, 0.007848452776670456, 0.00820484571158886, 0.008561238646507263, 0.008917629718780518, 0.009274022653698921, 0.009630415588617325, 0.009986808523535728, 0.010343201458454132, 0.010699594393372536, 0.01105598732829094, 0.011412378400564194, 0.011768771335482597, 0.012125164270401001, 0.012481557205319405]}, "gradients/linear.fc.weight": {"_type": "histogram", "values": [1.0, 0.0, 0.0, 0.0, 1.0, 0.0, 0.0, 0.0, 3.0, 0.0, 10.0, 8.0, 8.0, 11.0, 8.0, 16.0, 14.0, 17.0, 17.0, 25.0, 28.0, 32.0, 58.0, 60.0, 9390.0, 36.0, 41.0, 37.0, 16.0, 23.0, 10.0, 24.0, 20.0, 5.0, 6.0, 11.0, 17.0, 15.0, 7.0, 9.0, 4.0, 2.0, 0.0, 0.0, 1.0, 0.0, 0.0, 0.0, 0.0, 0.0, 0.0, 0.0, 0.0, 0.0, 0.0, 0.0, 0.0, 0.0, 0.0, 0.0, 0.0, 0.0, 0.0, 1.0], "bins": [-0.0032248971983790398, -0.0030949243810027838, -0.002964951563626528, -0.002834978746250272, -0.002705005928874016, -0.002575032878667116, -0.00244506006129086, -0.002315087243914604, -0.002185114426538348, -0.002055141609162092, -0.0019251687917858362, -0.0017951958579942584, -0.0016652230406180024, -0.0015352502232417464, -0.0014052772894501686, -0.0012753044720739126, -0.0011453316546976566, -0.0010153588373214006, -0.0008853860199451447, -0.0007554132025688887, -0.0006254403851926327, -0.000495467334985733, -0.00036549451760947704, -0.00023552170023322105, -0.00010554888285696507, 2.4423934519290924e-05, 0.0001543967518955469, 0.0002843695692718029, 0.00041434261947870255, 0.0005443154368549585, 0.0006742882542312145, 0.0008042608387768269, 0.0009342338889837265, 0.0010642069391906261, 0.0011941795237362385, 0.0013241525739431381, 0.0014541251584887505, 0.00158409820869565, 0.0017140707932412624, 0.001844043843448162, 0.0019740164279937744, 0.002103989478200674, 0.0022339625284075737, 0.002363935112953186, 0.0024939081631600857, 0.002623880747705698, 0.0027538537979125977, 0.00288382638245821, 0.0030137994326651096, 0.0031437724828720093, 0.0032737450674176216, 0.0034037181176245213, 0.0035336907021701336, 0.0036636637523770332, 0.0037936363369226456, 0.003923609387129545, 0.004053582437336445, 0.004183555021882057, 0.004313528072088957, 0.004443500656634569, 0.004573473706841469, 0.004703446291387081, 0.0048334188759326935, 0.00496339239180088, 0.005093364976346493]}, "parameters/mlp.mlp.1.weight": {"_type": "histogram", "values": [1.0, 0.0, 0.0, 0.0, 0.0, 1.0, 0.0, 0.0, 0.0, 1.0, 1.0, 0.0, 1.0, 1.0, 0.0, 1.0, 1.0, 0.0, 0.0, 1.0, 0.0, 0.0, 0.0, 0.0, 0.0, 0.0, 1.0, 0.0, 1.0, 0.0, 0.0, 0.0, 0.0, 0.0, 0.0, 0.0, 0.0, 0.0, 0.0, 0.0, 0.0, 1.0, 0.0, 1.0, 0.0, 0.0, 1.0, 1.0, 0.0, 0.0, 0.0, 0.0, 0.0, 0.0, 0.0, 0.0, 0.0, 0.0, 0.0, 0.0, 0.0, 0.0, 0.0, 1.0], "bins": [0.6550958752632141, 0.6597111821174622, 0.6643264293670654, 0.6689417362213135, 0.6735569834709167, 0.6781722903251648, 0.6827875971794128, 0.6874028444290161, 0.6920181512832642, 0.6966334581375122, 0.7012487053871155, 0.7058640122413635, 0.7104792594909668, 0.7150945663452148, 0.7197098731994629, 0.7243251204490662, 0.7289404273033142, 0.7335556745529175, 0.7381709814071655, 0.7427862882614136, 0.7474015355110168, 0.7520168423652649, 0.7566320896148682, 0.7612473964691162, 0.7658627033233643, 0.7704779505729675, 0.7750932574272156, 0.7797085046768188, 0.7843238115310669, 0.7889391183853149, 0.7935543656349182, 0.7981696724891663, 0.8027849197387695, 0.8074002265930176, 0.8120155334472656, 0.8166307806968689, 0.8212460875511169, 0.8258613348007202, 0.8304766416549683, 0.8350919485092163, 0.8397072553634644, 0.8443225026130676, 0.8489377498626709, 0.853553056716919, 0.858168363571167, 0.862783670425415, 0.8673989176750183, 0.8720142245292664, 0.8766294717788696, 0.8812447786331177, 0.8858600854873657, 0.890475332736969, 0.895090639591217, 0.8997058868408203, 0.9043211936950684, 0.9089365005493164, 0.9135517477989197, 0.918166995048523, 0.922782301902771, 0.927397608757019, 0.9320129156112671, 0.9366281628608704, 0.9412434697151184, 0.9458587169647217, 0.9504740238189697]}, "Validation AUC": 0.7917617970200245, "Test AUC": 0.791545644960663}
